{"learner":{"attributes":{"scikit_learn":"{\"_estimator_type\": \"regressor\"}"},"feature_names":[],"feature_types":[],"gradient_booster":{"model":{"cats":{"enc":[],"feature_segments":[],"sorted_idx":[]},"gbtree_model_param":{"num_parallel_tree":"1","num_trees":"300"},"iteration_indptr":[0,1,2,3,4,5,6,7,8,9,10,11,12,13,14,15,16,17,18,19,20,21,22,23,24,25,26,27,28,29,30,31,32,33,34,35,36,37,38,39,40,41,42,43,44,45,46,47,48,49,50,51,52,53,54,55,56,57,58,59,60,61,62,63,64,65,66,67,68,69,70,71,72,73,74,75,76,77,78,79,80,81,82,83,84,85,86,87,88,89,90,91,92,93,94,95,96,97,98,99,100,101,102,103,104,105,106,107,108,109,110,111,112,113,114,115,116,117,118,119,120,121,122,123,124,125,126,127,128,129,130,131,132,133,134,135,136,137,138,139,140,141,142,143,144,145,146,147,148,149,150,151,152,153,154,155,156,157,158,159,160,161,162,163,164,165,166,167,168,169,170,171,172,173,174,175,176,177,178,179,180,181,182,183,184,185,186,187,188,189,190,191,192,193,194,195,196,197,198,199,200,201,202,203,204,205,206,207,208,209,210,211,212,213,214,215,216,217,218,219,220,221,222,223,224,225,226,227,228,229,230,231,232,233,234,235,236,237,238,239,240,241,242,243,244,245,246,247,248,249,250,251,252,253,254,255,256,257,258,259,260,261,262,263,264,265,266,267,268,269,270,271,272,273,274,275,276,277,278,279,280,281,282,283,284,285,286,287,288,289,290,291,292,293,294,295,296,297,298,299,300],"tree_info":[0,0,0,0,0,0,0,0,0,0,0,0,0,0,0,0,0,0,0,0,0,0,0,0,0,0,0,0,0,0,0,0,0,0,0,0,0,0,0,0,0,0,0,0,0,0,0,0,0,0,0,0,0,0,0,0,0,0,0,0,0,0,0,0,0,0,0,0,0,0,0,0,0,0,0,0,0,0,0,0,0,0,0,0,0,0,0,0,0,0,0,0,0,0,0,0,0,0,0,0,0,0,0,0,0,0,0,0,0,0,0,0,0,0,0,0,0,0,0,0,0,0,0,0,0,0,0,0,0,0,0,0,0,0,0,0,0,0,0,0,0,0,0,0,0,0,0,0,0,0,0,0,0,0,0,0,0,0,0,0,0,0,0,0,0,0,0,0,0,0,0,0,0,0,0,0,0,0,0,0,0,0,0,0,0,0,0,0,0,0,0,0,0,0,0,0,0,0,0,0,0,0,0,0,0,0,0,0,0,0,0,0,0,0,0,0,0,0,0,0,0,0,0,0,0,0,0,0,0,0,0,0,0,0,0,0,0,0,0,0,0,0,0,0,0,0,0,0,0,0,0,0,0,0,0,0,0,0,0,0,0,0,0,0,0,0,0,0,0,0,0,0,0,0,0,0,0,0,0,0,0,0,0,0,0,0,0,0,0,0,0,0,0,0,0,0,0,0,0,0],"trees":[{"base_weights":[-6.483336E-2,-6.4949484E0,1.6433788E1,-1.1058666E1,-7.6322275E-1,1.4272339E1,2.8687513E1,-1.2469095E1,-9.723473E0,3.2768657E0,-4.9884763E0,1.5436882E1,8.378187E-1,1.299523E1,1.7306789E0,9.731776E0,-1.2509981E1,-1.0935086E1,-8.40475E0,2.0060215E0,3.1079514E0,-8.98842E0,-3.319193E0,8.730225E0,1.6714764E1,4.6766796E0,-8.0125065E0,3.752118E1,8.115339E0,-2.0324028E-1,9.331235E-1,-5.270284E-1,-6.317446E-1,8.9178526E-1,-5.5390733E-1,-4.484706E-1,-1.0428231E-1,-3.0161402E-1,1.8226062E-1,2.0325647E-1,-4.5639285E-1,-2.049034E-1,1.8364328E-1,1.5610247E0,4.2063603E-1,4.2597458E-2,8.644495E-1,2.4810588E-2,4.1675636E-1,-2.2349568E-1,-5.218301E-1,2.4543073E0,-3.857703E-2,-6.7896985E-2,8.286876E-1],"categories":[],"categories_nodes":[],"categories_segments":[],"categories_sizes":[],"default_left":[0,0,0,0,0,0,0,0,0,0,0,0,0,0,0,0,0,0,0,0,0,0,0,0,0,0,0,0,0,0,0,0,0,0,0,0,0,0,0,0,0,0,0,0,0,0,0,0,0,0,0,0,0,0,0],"id":0,"left_children":[1,3,5,7,9,11,13,15,17,19,21,23,25,27,-1,29,31,33,35,-1,37,39,41,43,45,47,49,51,53,-1,-1,-1,-1,-1,-1,-1,-1,-1,-1,-1,-1,-1,-1,-1,-1,-1,-1,-1,-1,-1,-1,-1,-1,-1,-1],"loss_changes":[7.2405144E5,1.2845341E5,5.0284344E4,5.0274062E3,3.719567E4,2.5472906E4,2.6146312E4,1.3253906E3,2.1593594E3,6.808174E3,7.081211E3,1.2700969E4,4.488219E3,9.270219E3,0E0,4.4549844E2,1.9251562E2,3.2063594E3,2.4040703E3,0E0,5.4728506E3,6.068164E2,4.1158447E3,1.4654141E3,1.1444219E4,1.4029142E3,2.9685254E2,5.7949766E3,5.471271E3,0E0,0E0,0E0,0E0,0E0,0E0,0E0,0E0,0E0,0E0,0E0,0E0,0E0,0E0,0E0,0E0,0E0,0E0,0E0,0E0,0E0,0E0,0E0,0E0,0E0,0E0],"parents":[2147483647,0,0,1,1,2,2,3,3,4,4,5,5,6,6,7,7,8,8,9,9,10,10,11,11,12,12,13,13,15,15,16,16,17,17,18,18,20,20,21,21,22,22,23,23,24,24,25,25,26,26,27,27,28,28],"right_children":[2,4,6,8,10,12,14,16,18,20,22,24,26,28,-1,30,32,34,36,-1,38,40,42,44,46,48,50,52,54,-1,-1,-1,-1,-1,-1,-1,-1,-1,-1,-1,-1,-1,-1,-1,-1,-1,-1,-1,-1,-1,-1,-1,-1,-1,-1],"split_conditions":[2.05128E1,2.43902E0,4.28571E1,5.75107E0,-8.8E1,-9.1E1,6.048E3,2.128E3,-8E1,-3.91796E0,1.03093E1,2.43243E1,-8.6E1,1.93239E0,1.7306789E0,-8.2E1,4.368E3,3.136E3,1.06271E1,2.0060215E0,2.7027E0,-8.3E1,5.264E3,-9.8E1,2.02341E0,2.32558E1,-7.5E1,-9.5E1,2.61295E0,-2.0324028E-1,9.331235E-1,-5.270284E-1,-6.317446E-1,8.9178526E-1,-5.5390733E-1,-4.484706E-1,-1.0428231E-1,-3.0161402E-1,1.8226062E-1,2.0325647E-1,-4.5639285E-1,-2.049034E-1,1.8364328E-1,1.5610247E0,4.2063603E-1,4.2597458E-2,8.644495E-1,2.4810588E-2,4.1675636E-1,-2.2349568E-1,-5.218301E-1,2.4543073E0,-3.857703E-2,-6.7896985E-2,8.286876E-1],"split_indices":[8,8,8,11,1,1,9,9,2,7,14,8,1,12,0,1,9,9,11,0,8,5,9,1,3,8,5,1,3,0,0,0,0,0,0,0,0,0,0,0,0,0,0,0,0,0,0,0,0,0,0,0,0,0,0],"split_type":[0,0,0,0,0,0,0,0,0,0,0,0,0,0,0,0,0,0,0,0,0,0,0,0,0,0,0,0,0,0,0,0,0,0,0,0,0,0,0,0,0,0,0,0,0,0,0,0,0,0,0,0,0,0,0],"sum_hessian":[6.823E3,4.91E3,1.913E3,2.733E3,2.177E3,1.628E3,2.85E2,1.325E3,1.408E3,1.113E3,1.064E3,1.498E3,1.3E2,7.9E1,2.06E2,2E0,1.323E3,7.3E2,6.78E2,4E0,1.109E3,3.12E2,7.52E2,2.41E2,1.257E3,9.1E1,3.9E1,1.2E1,6.7E1,1E0,1E0,8.4E1,1.239E3,3E0,7.27E2,6.22E2,5.6E1,6.1E1,1.048E3,3E0,3.09E2,6.77E2,7.5E1,2E0,2.39E2,4.4E1,1.213E3,4.3E1,4.8E1,1.7E1,2.2E1,9E0,3E0,3.2E1,3.5E1],"tree_param":{"num_deleted":"0","num_feature":"15","num_nodes":"55","size_leaf_vector":"1"}},{"base_weights":[5.5809323E-2,-5.8948836E0,1.6163303E1,-9.616293E0,8.6817753E-1,1.4144877E1,2.6902925E1,-1.0472112E1,-5.057628E0,4.6393886E0,-3.4177125E0,1.555208E1,3.2833505E0,1.0664347E1,1.6321154E0,-8.238715E0,-1.1285415E1,-9.084248E0,-2.3219318E0,7.423624E0,2.4605746E0,-5.4013243E0,3.0970662E0,8.3576975E0,1.6411213E1,6.3230853E0,-8.322048E0,4.0284393E1,6.7037077E0,1.7441663E0,-4.2022082E-1,-1.2888633E-1,-5.697167E-1,-4.9968752E-1,-3.95953E-1,9.433905E-1,-1.2961085E-1,-2.0854664E-1,4.039978E-1,-7.271281E-2,1.5362506E-1,-2.1395098E-1,-3.4858268E-1,1.9851546E-1,9.901208E-2,2.0057273E0,3.8287535E-1,-4.530754E-1,8.313012E-1,1.6201475E-1,6.1168975E-1,-2.6401696E-1,-5.397785E-1,3.1824985E-1,2.809163E0,-4.9231287E-2,7.436628E-1],"categories":[],"categories_nodes":[],"categories_segments":[],"categories_sizes":[],"default_left":[0,0,0,0,0,0,0,0,0,0,0,0,0,0,0,0,0,0,0,0,0,0,0,0,0,0,0,0,0,0,0,0,0,0,0,0,0,0,0,0,0,0,0,0,0,0,0,0,0,0,0,0,0,0,0,0,0],"id":1,"left_children":[1,3,5,7,9,11,13,15,17,19,21,23,25,27,-1,29,31,33,35,37,39,41,43,45,47,49,51,53,55,-1,-1,-1,-1,-1,-1,-1,-1,-1,-1,-1,-1,-1,-1,-1,-1,-1,-1,-1,-1,-1,-1,-1,-1,-1,-1,-1,-1],"loss_changes":[6.6050694E5,1.2665433E5,3.991725E4,1.26109375E4,2.8899129E4,2.3899531E4,2.6959328E4,4.8695E3,5.6519453E3,5.7508145E3,1.0833105E4,8.435781E3,6.4378174E3,8.880464E3,0E0,5.5307305E3,1.8674844E3,1.4128711E2,1.8129106E3,3.2070215E3,1.2861086E3,1.1016191E3,1.832887E2,3.0282002E3,6.9247812E3,2.584252E3,2.2889746E2,4.495913E3,4.4113594E3,0E0,0E0,0E0,0E0,0E0,0E0,0E0,0E0,0E0,0E0,0E0,0E0,0E0,0E0,0E0,0E0,0E0,0E0,0E0,0E0,0E0,0E0,0E0,0E0,0E0,0E0,0E0,0E0],"parents":[2147483647,0,0,1,1,2,2,3,3,4,4,5,5,6,6,7,7,8,8,9,9,10,10,11,11,12,12,13,13,15,15,16,16,17,17,18,18,19,19,20,20,21,21,22,22,23,23,24,24,25,25,26,26,27,27,28,28],"right_children":[2,4,6,8,10,12,14,16,18,20,22,24,26,28,-1,30,32,34,36,38,40,42,44,46,48,50,52,54,56,-1,-1,-1,-1,-1,-1,-1,-1,-1,-1,-1,-1,-1,-1,-1,-1,-1,-1,-1,-1,-1,-1,-1,-1,-1,-1,-1,-1],"split_conditions":[2.14286E1,5.12821E0,4.28571E1,2.43902E0,-8.2697E1,-9.2E1,5.936E3,4.368E3,2.464E3,-8.625E1,4.928E3,2.4183E1,-8.6E1,-9.2E1,1.6321154E0,-3.12775E0,4.9E1,-7.4E1,4.032E3,-9.1E1,9.52381E0,-7.8575E1,-8.09706E1,-9.8E1,1.40334E0,9.072E3,-7.5E1,1.2225E2,2.61295E0,1.7441663E0,-4.2022082E-1,-1.2888633E-1,-5.697167E-1,-4.9968752E-1,-3.95953E-1,9.433905E-1,-1.2961085E-1,-2.0854664E-1,4.039978E-1,-7.271281E-2,1.5362506E-1,-2.1395098E-1,-3.4858268E-1,1.9851546E-1,9.901208E-2,2.0057273E0,3.8287535E-1,-4.530754E-1,8.313012E-1,1.6201475E-1,6.1168975E-1,-2.6401696E-1,-5.397785E-1,3.1824985E-1,2.809163E0,-4.9231287E-2,7.436628E-1],"split_indices":[8,8,8,8,0,1,9,9,9,0,9,8,1,2,0,7,10,0,9,2,8,0,0,1,3,9,5,10,3,0,0,0,0,0,0,0,0,0,0,0,0,0,0,0,0,0,0,0,0,0,0,0,0,0,0,0,0],"split_type":[0,0,0,0,0,0,0,0,0,0,0,0,0,0,0,0,0,0,0,0,0,0,0,0,0,0,0,0,0,0,0,0,0,0,0,0,0,0,0,0,0,0,0,0,0,0,0,0,0,0,0,0,0,0,0,0,0],"sum_hessian":[6.889E3,5.031E3,1.858E3,3.245E3,1.786E3,1.566E3,2.92E2,2.731E3,5.14E2,9.5E2,8.36E2,1.386E3,1.8E2,7.7E1,2.15E2,7.32E2,1.999E3,2.07E2,3.07E2,4.16E2,5.34E2,6.41E2,1.95E2,1.49E2,1.237E3,1.43E2,3.7E1,8E0,6.9E1,2E0,7.3E2,2.5E1,1.974E3,1.12E2,9.5E1,3E0,3.04E2,2.2E1,3.94E2,7.2E1,4.62E2,3.76E2,2.65E2,1.08E2,8.7E1,2E0,1.47E2,1E1,1.227E3,9.5E1,4.8E1,1.8E1,1.9E1,3E0,5E0,3.6E1,3.3E1],"tree_param":{"num_deleted":"0","num_feature":"15","num_nodes":"57","size_leaf_vector":"1"}},{"base_weights":[-4.5229483E-2,1.5661015E1,-3.3447826E0,9.113549E0,2.2149246E1,-7.7830753E0,1.1388608E0,1.2391794E1,-7.571377E0,2.5583414E1,1.3808712E1,-4.451872E0,-1.0377249E1,6.129315E0,-4.2391477E0,-6.9244833E0,1.2803496E1,8.957898E0,-8.746741E0,1.0713729E0,2.8658546E1,9.960589E-1,1.1155457E1,3.8403516E0,-7.406603E0,-1.0666652E1,-4.2768955E0,1.3445539E1,3.8189564E0,-6.2211156E0,3.8983874E0,-4.43572E-1,6.122735E-2,6.852251E-1,2.6708296E-1,5.249158E-1,-7.115221E-3,6.934499E-2,-4.7987968E-1,1.5208162E0,6.8651056E-1,3.1260514E-1,6.534294E-1,1.6652405E0,1.3080266E-1,-1.7668034E-1,-4.075732E-1,-5.415022E-1,-3.8497266E-1,-4.3377766E-1,-6.2470734E-2,7.178723E-1,2.4140862E-1,-2.0226542E-2,4.6256143E-1,-5.064742E-1,-2.5168595E-1,1.4539199E-1,5.176462E-1],"categories":[],"categories_nodes":[],"categories_segments":[],"categories_sizes":[],"default_left":[0,0,0,0,0,0,0,0,0,0,0,0,0,0,0,0,0,0,0,0,0,0,0,0,0,0,0,0,0,0,0,0,0,0,0,0,0,0,0,0,0,0,0,0,0,0,0,0,0,0,0,0,0,0,0,0,0,0,0],"id":2,"left_children":[1,3,5,7,9,11,13,15,17,19,21,23,25,27,29,31,33,35,37,-1,39,-1,41,43,45,47,49,51,53,55,57,-1,-1,-1,-1,-1,-1,-1,-1,-1,-1,-1,-1,-1,-1,-1,-1,-1,-1,-1,-1,-1,-1,-1,-1,-1,-1,-1,-1],"loss_changes":[3.5462938E5,5.0266094E4,1.1254178E5,3.2529297E4,1.6717844E4,2.4513562E4,7.555009E4,4.033125E3,1.9822896E3,4.7663438E3,2.632125E3,3.0557047E4,2.7738281E3,2.4627184E4,2.1878145E4,1.8538739E2,3.19425E3,9.962079E1,8.065547E2,0E0,5.8539062E3,0E0,1.0908877E3,1.1744911E4,2.6223672E3,6.5546875E2,9.746078E2,2.6810664E3,2.5493555E4,5.0074688E3,1.6705737E3,0E0,0E0,0E0,0E0,0E0,0E0,0E0,0E0,0E0,0E0,0E0,0E0,0E0,0E0,0E0,0E0,0E0,0E0,0E0,0E0,0E0,0E0,0E0,0E0,0E0,0E0,0E0,0E0],"parents":[2147483647,0,0,1,1,2,2,3,3,4,4,5,5,6,6,7,7,8,8,9,9,10,10,11,11,12,12,13,13,14,14,15,15,16,16,17,17,18,18,20,20,22,22,23,23,24,24,25,25,26,26,27,27,28,28,29,29,30,30],"right_children":[2,4,6,8,10,12,14,16,18,20,22,24,26,28,30,32,34,36,38,-1,40,-1,42,44,46,48,50,52,54,56,58,-1,-1,-1,-1,-1,-1,-1,-1,-1,-1,-1,-1,-1,-1,-1,-1,-1,-1,-1,-1,-1,-1,-1,-1,-1,-1,-1,-1],"split_conditions":[-9.7E1,2.27273E1,3.01057E0,4.032E3,-9.0225E1,4.368E3,-8.325E1,2.32193E0,1.96078E1,7.952E3,7.952E3,-8.25714E1,2.0202E1,3.472E3,2.22222E1,2E0,3.696E3,-8.72131E1,-9.13348E-1,1.0713729E0,1.176E4,9.960589E-1,3.45355E0,1.96001E0,6.04545E1,5.04737E1,8E0,-8.5375E1,2.08333E1,5.01053E1,1.12E4,-4.43572E-1,6.122735E-2,6.852251E-1,2.6708296E-1,5.249158E-1,-7.115221E-3,6.934499E-2,-4.7987968E-1,1.5208162E0,6.8651056E-1,3.1260514E-1,6.534294E-1,1.6652405E0,1.3080266E-1,-1.7668034E-1,-4.075732E-1,-5.415022E-1,-3.8497266E-1,-4.3377766E-1,-6.2470734E-2,7.178723E-1,2.4140862E-1,-2.0226542E-2,4.6256143E-1,-5.064742E-1,-2.5168595E-1,1.4539199E-1,5.176462E-1],"split_indices":[1,14,12,9,0,9,0,12,14,9,9,0,14,9,14,6,9,0,7,0,9,0,12,12,10,10,4,0,14,10,9,0,0,0,0,0,0,0,0,0,0,0,0,0,0,0,0,0,0,0,0,0,0,0,0,0,0,0,0],"split_type":[0,0,0,0,0,0,0,0,0,0,0,0,0,0,0,0,0,0,0,0,0,0,0,0,0,0,0,0,0,0,0,0,0,0,0,0,0,0,0,0,0,0,0,0,0,0,0,0,0,0,0,0,0,0,0,0,0,0,0],"sum_hessian":[6.841E3,1.187E3,5.654E3,5.92E2,5.95E2,2.841E3,2.813E3,4.95E2,9.7E1,4.2E2,1.75E2,1.245E3,1.596E3,1.459E3,1.354E3,1E1,4.85E2,6E0,9.1E1,1.82E2,2.38E2,5.1E1,1.24E2,3.27E2,9.18E2,1.523E3,7.3E1,3.49E2,1.11E3,1.089E3,2.65E2,8E0,2E0,4.32E2,5.3E1,5E0,1E0,7E0,8.4E1,2.12E2,2.6E1,3.6E1,8.8E1,1.2E1,3.15E2,1.49E2,7.69E2,1.441E3,8.2E1,2.9E1,4.4E1,3.15E2,3.4E1,6.25E2,4.85E2,2.52E2,8.37E2,2.31E2,3.4E1],"tree_param":{"num_deleted":"0","num_feature":"15","num_nodes":"59","size_leaf_vector":"1"}},{"base_weights":[-6.5663055E-2,-5.5966587E0,1.4315542E1,-9.5634365E0,-5.638129E-1,1.2511067E1,2.439094E1,-1.0769026E1,-8.40725E0,2.9569726E0,-4.225561E0,1.4094201E1,5.604309E0,8.427272E0,2.9575241E1,1.617403E0,-1.0797792E1,-9.623641E0,-7.158138E0,1.8887637E0,2.7973256E0,-7.510596E0,-2.2531362E0,-8.942363E0,1.4367096E1,1.4639456E0,1.1330608E1,3.4006523E1,5.5866346E0,1.4842417E0,5.9313595E-1,7.114264E-1,-3.6645737E-1,-4.39461E-1,-5.4587924E-1,7.527739E-1,-4.874386E-1,-3.8826546E-1,-1.9954376E-2,-2.841596E-1,1.6653854E-1,1.6737957E-1,-3.856002E-1,-1.4798199E-1,1.7826247E-1,-1.0801587E-1,-4.878459E-1,3.8704148E-1,7.619229E-1,2.2671326E-1,-2.0819214E-1,5.6903666E-1,1.2537138E-1,2.6930916E0,2.824793E-1,-2.9595567E-2,6.745009E-1],"categories":[],"categories_nodes":[],"categories_segments":[],"categories_sizes":[],"default_left":[0,0,0,0,0,0,0,0,0,0,0,0,0,0,0,0,0,0,0,0,0,0,0,0,0,0,0,0,0,0,0,0,0,0,0,0,0,0,0,0,0,0,0,0,0,0,0,0,0,0,0,0,0,0,0,0,0],"id":3,"left_children":[1,3,5,7,9,11,13,15,17,19,21,23,25,27,29,31,33,35,37,-1,39,41,43,45,47,49,51,53,55,-1,-1,-1,-1,-1,-1,-1,-1,-1,-1,-1,-1,-1,-1,-1,-1,-1,-1,-1,-1,-1,-1,-1,-1,-1,-1,-1,-1],"loss_changes":[5.4494544E5,9.877739E4,3.4292875E4,3.7663438E3,2.814334E4,1.759086E4,2.3585781E4,4.9882812E2,2.0841172E3,6.081091E3,6.916127E3,8.389047E3,7.1672275E3,5.0416367E3,6.9078125E1,5.5558716E2,2.2839062E2,2.3547734E3,2.8819492E3,0E0,5.035925E3,9.027754E2,2.7647275E3,6.731152E1,7.3822812E3,3.0772817E3,2.763086E1,3.6369521E3,3.2308582E3,0E0,0E0,0E0,0E0,0E0,0E0,0E0,0E0,0E0,0E0,0E0,0E0,0E0,0E0,0E0,0E0,0E0,0E0,0E0,0E0,0E0,0E0,0E0,0E0,0E0,0E0,0E0,0E0],"parents":[2147483647,0,0,1,1,2,2,3,3,4,4,5,5,6,6,7,7,8,8,9,9,10,10,11,11,12,12,13,13,14,14,15,15,16,16,17,17,18,18,20,20,21,21,22,22,23,23,24,24,25,25,26,26,27,27,28,28],"right_children":[2,4,6,8,10,12,14,16,18,20,22,24,26,28,30,32,34,36,38,-1,40,42,44,46,48,50,52,54,56,-1,-1,-1,-1,-1,-1,-1,-1,-1,-1,-1,-1,-1,-1,-1,-1,-1,-1,-1,-1,-1,-1,-1,-1,-1,-1,-1,-1],"split_conditions":[2.05128E1,2.43902E0,4.28571E1,5.75107E0,-8.8E1,-8.58667E1,5.936E3,-9.8E1,-8E1,-3.91796E0,3.808E3,2.32193E0,9.52E3,-9.2E1,2.89378E1,-9.42258E1,4.368E3,3.136E3,1.06271E1,1.8887637E0,2.7027E0,-8.2697E1,5.264E3,1.10425E0,2.38095E1,-8.325E1,2.1E1,8.96E2,2.72058E0,1.4842417E0,5.9313595E-1,7.114264E-1,-3.6645737E-1,-4.39461E-1,-5.4587924E-1,7.527739E-1,-4.874386E-1,-3.8826546E-1,-1.9954376E-2,-2.841596E-1,1.6653854E-1,1.6737957E-1,-3.856002E-1,-1.4798199E-1,1.7826247E-1,-1.0801587E-1,-4.878459E-1,3.8704148E-1,7.619229E-1,2.2671326E-1,-2.0819214E-1,5.6903666E-1,1.2537138E-1,2.6930916E0,2.824793E-1,-2.9595567E-2,6.745009E-1],"split_indices":[8,8,8,11,1,0,9,1,2,7,9,12,9,2,11,0,9,9,11,0,8,0,9,3,8,0,4,9,12,0,0,0,0,0,0,0,0,0,0,0,0,0,0,0,0,0,0,0,0,0,0,0,0,0,0,0,0],"split_type":[0,0,0,0,0,0,0,0,0,0,0,0,0,0,0,0,0,0,0,0,0,0,0,0,0,0,0,0,0,0,0,0,0,0,0,0,0,0,0,0,0,0,0,0,0,0,0,0,0,0,0,0,0,0,0,0,0],"sum_hessian":[6.849E3,4.947E3,1.902E3,2.766E3,2.181E3,1.615E3,2.87E2,1.35E3,1.416E3,1.112E3,1.069E3,1.313E3,3.02E2,7.1E1,2.16E2,3E0,1.347E3,7.14E2,7.02E2,4E0,1.108E3,4E2,6.69E2,1.5E1,1.298E3,1.76E2,1.26E2,6E0,6.5E1,2.14E2,2E0,1E0,2E0,8E1,1.267E3,3E0,7.11E2,6.44E2,5.8E1,6.5E1,1.043E3,7E0,3.93E2,5.97E2,7.2E1,2E0,1.3E1,1.52E2,1.146E3,1.14E2,6.2E1,1.25E2,1E0,3E0,3E0,3.7E1,2.8E1],"tree_param":{"num_deleted":"0","num_feature":"15","num_nodes":"57","size_leaf_vector":"1"}},{"base_weights":[-4.5750443E-2,-5.3366923E0,1.3503578E1,-8.244956E0,8.222216E-1,9.310408E0,1.7341888E1,-9.069625E0,-4.351235E0,4.2256565E0,-3.000917E0,1.0245039E1,-2.0757933E0,2.2591434E1,1.1712574E1,-1.016026E1,-8.035306E0,-2.3548138E0,-8.051597E0,6.5602713E0,2.3559194E0,2.2918253E0,-5.098591E0,5.8843303E0,1.15937195E1,4.885964E-1,-3.735376E0,1.8620584E1,2.7291014E1,4.7452693E0,1.2771981E1,-1.6436966E-1,-5.112435E-1,-4.5140782E-1,-3.4256616E-1,-4.174018E-1,-9.1166586E-2,-4.0913257E-1,4.703643E-1,-1.841894E-1,3.6533904E-1,6.7328565E-2,1.8001477E-1,-8.555053E-2,1.3463376E-1,-1.8587258E-1,-3.1882802E-1,1.8123362E0,2.625414E-1,-3.345572E-1,5.915625E-1,-5.9485402E-2,-4.5745382E-1,5.181627E-1,9.441584E-1,-4.4803396E-1,1.3819575E0,1.0930647E0,6.72608E-3,6.602456E-1,-2.3218329E-1],"categories":[],"categories_nodes":[],"categories_segments":[],"categories_sizes":[],"default_left":[0,0,0,0,0,0,0,0,0,0,0,0,0,0,0,0,0,0,0,0,0,0,0,0,0,0,0,0,0,0,0,0,0,0,0,0,0,0,0,0,0,0,0,0,0,0,0,0,0,0,0,0,0,0,0,0,0,0,0,0,0],"id":4,"left_children":[1,3,5,7,9,11,13,15,17,19,21,23,25,27,29,31,33,35,37,39,41,43,45,47,49,-1,51,53,55,57,59,-1,-1,-1,-1,-1,-1,-1,-1,-1,-1,-1,-1,-1,-1,-1,-1,-1,-1,-1,-1,-1,-1,-1,-1,-1,-1,-1,-1,-1,-1],"loss_changes":[4.929319E5,8.858039E4,3.0917406E4,1.0746375E4,2.0662412E4,9.865023E3,2.9493594E4,3.0442188E3,4.3322656E3,3.6512402E3,8.316314E3,4.960203E3,1.4325232E3,9.195719E3,3.5414375E3,5.636406E2,1.6156016E3,1.2079304E3,5.4831836E2,2.8793564E3,5.8296387E2,3.4637354E2,9.223633E2,3.733541E3,2.9109531E3,0E0,8.5734875E2,4.2225E2,3.2261094E3,5.2056255E3,3.2506328E3,0E0,0E0,0E0,0E0,0E0,0E0,0E0,0E0,0E0,0E0,0E0,0E0,0E0,0E0,0E0,0E0,0E0,0E0,0E0,0E0,0E0,0E0,0E0,0E0,0E0,0E0,0E0,0E0,0E0,0E0],"parents":[2147483647,0,0,1,1,2,2,3,3,4,4,5,5,6,6,7,7,8,8,9,9,10,10,11,11,12,12,13,13,14,14,15,15,16,16,17,17,18,18,19,19,20,20,21,21,22,22,23,23,24,24,26,26,27,27,28,28,29,29,30,30],"right_children":[2,4,6,8,10,12,14,16,18,20,22,24,26,28,30,32,34,36,38,40,42,44,46,48,50,-1,52,54,56,58,60,-1,-1,-1,-1,-1,-1,-1,-1,-1,-1,-1,-1,-1,-1,-1,-1,-1,-1,-1,-1,-1,-1,-1,-1,-1,-1,-1,-1,-1,-1],"split_conditions":[2.05128E1,5.40541E0,3.04598E1,2.43902E0,-8.2697E1,-9E1,3.956E1,5.75107E0,9.93158E1,-8.625E1,5.20789E1,2.32558E1,1.71565E1,3.93939E1,2.19625E0,-9.5E1,-8.57714E1,2.43707E0,-6.6E1,-9.3875E1,-9.1E1,7.5E0,-7.91875E1,-9.8E1,1.47564E0,4.885964E-1,-7.4E1,2.07263E1,1.86815E0,-9.46E1,-8.565E1,-1.6436966E-1,-5.112435E-1,-4.5140782E-1,-3.4256616E-1,-4.174018E-1,-9.1166586E-2,-4.0913257E-1,4.703643E-1,-1.841894E-1,3.6533904E-1,6.7328565E-2,1.8001477E-1,-8.555053E-2,1.3463376E-1,-1.8587258E-1,-3.1882802E-1,1.8123362E0,2.625414E-1,-3.345572E-1,5.915625E-1,-5.9485402E-2,-4.5745382E-1,5.181627E-1,9.441584E-1,-4.4803396E-1,1.3819575E0,1.0930647E0,6.72608E-3,6.602456E-1,-2.3218329E-1],"split_indices":[8,8,8,8,0,1,10,11,10,0,10,8,10,8,3,5,0,12,5,0,1,8,0,1,3,0,5,10,3,0,0,0,0,0,0,0,0,0,0,0,0,0,0,0,0,0,0,0,0,0,0,0,0,0,0,0,0,0,0,0,0],"split_type":[0,0,0,0,0,0,0,0,0,0,0,0,0,0,0,0,0,0,0,0,0,0,0,0,0,0,0,0,0,0,0,0,0,0,0,0,0,0,0,0,0,0,0,0,0,0,0,0,0,0,0,0,0,0,0,0,0,0,0,0,0],"sum_hessian":[6.874E3,4.944E3,1.93E3,3.358E3,1.586E3,9.24E2,1.006E3,2.77E3,5.88E2,8.39E2,7.47E2,8.54E2,7E1,5.19E2,4.87E2,1.344E3,1.426E3,3.83E2,2.05E2,3.72E2,4.67E2,2.12E2,5.35E2,2.03E2,6.51E2,8E0,6.2E1,2.84E2,2.35E2,6.5E1,4.22E2,1.3E1,1.331E3,7.72E2,6.54E2,3E1,3.53E2,2.04E2,1E0,2.5E1,3.47E2,2.59E2,2.08E2,1.9E1,1.93E2,2.59E2,2.76E2,3E0,2E2,8E0,6.43E2,4.3E1,1.9E1,1E1,2.74E2,2E0,2.33E2,1.3E1,5.2E1,4.12E2,1E1],"tree_param":{"num_deleted":"0","num_feature":"15","num_nodes":"61","size_leaf_vector":"1"}},{"base_weights":[8.969883E-3,-8.408506E0,5.4943333E0,1.2921622E1,-8.507726E0,1.118403E1,-9.657133E-1,2.7792458E1,-3.7951586E0,-9.733404E0,-7.292875E0,7.7933183E0,1.6990112E1,2.3553743E0,-4.1333723E0,1.7852563E0,6.4658374E-1,3.2437834E-1,-3.2951036E-1,1.9194894E0,-9.760864E0,-8.605743E0,-6.101332E0,1.14106245E1,2.3357758E-2,7.981522E0,2.1488026E1,1.1380728E0,1.0292419E1,8.0420256E-2,-5.3258543E0,6.9775E-1,-3.3720067E-1,-4.911456E-1,-2.4600458E-1,2.1440987E-1,-4.3869406E-1,-1.645977E-1,-3.4995162E-1,2.3757555E0,5.566582E-1,1.4624509E-1,-2.7039436E-1,5.158842E-1,1.6619278E-1,1.3174821E0,9.262642E-1,2.5343126E-1,3.6470633E-2,3.1092104E-1,5.2215225E-1,-1.2409439E-1,6.508253E-2,-1.8846561E-1,-3.3625707E-1],"categories":[],"categories_nodes":[],"categories_segments":[],"categories_sizes":[],"default_left":[0,0,0,0,0,0,0,0,0,0,0,0,0,0,0,0,0,0,0,0,0,0,0,0,0,0,0,0,0,0,0,0,0,0,0,0,0,0,0,0,0,0,0,0,0,0,0,0,0,0,0,0,0,0,0],"id":5,"left_children":[1,3,5,7,9,11,13,15,17,19,21,23,25,27,29,-1,-1,-1,-1,31,33,35,37,39,41,43,45,47,49,51,53,-1,-1,-1,-1,-1,-1,-1,-1,-1,-1,-1,-1,-1,-1,-1,-1,-1,-1,-1,-1,-1,-1,-1,-1],"loss_changes":[3.1854697E5,5.8706406E3,1.5353938E5,3.3371794E3,3.9642344E3,4.3591875E4,2.0597516E4,3.613916E2,2.4393942E2,4.494375E2,2.0828203E3,3.9461008E4,3.297372E4,9.224945E3,5.0353496E3,0E0,0E0,0E0,0E0,5.1119138E2,3.5504688E2,1.4402852E3,1.7902637E3,9.06782E3,7.060089E3,2.9471172E3,7.3618906E3,1.3294987E3,1.2993164E1,6.979059E2,1.675709E3,0E0,0E0,0E0,0E0,0E0,0E0,0E0,0E0,0E0,0E0,0E0,0E0,0E0,0E0,0E0,0E0,0E0,0E0,0E0,0E0,0E0,0E0,0E0,0E0],"parents":[2147483647,0,0,1,1,2,2,3,3,4,4,5,5,6,6,7,7,8,8,9,9,10,10,11,11,12,12,13,13,14,14,19,19,20,20,21,21,22,22,23,23,24,24,25,25,26,26,27,27,28,28,29,29,30,30],"right_children":[2,4,6,8,10,12,14,16,18,20,22,24,26,28,30,-1,-1,-1,-1,32,34,36,38,40,42,44,46,48,50,52,54,-1,-1,-1,-1,-1,-1,-1,-1,-1,-1,-1,-1,-1,-1,-1,-1,-1,-1,-1,-1,-1,-1,-1,-1],"split_conditions":[1.21783E1,2.128E3,-8.58667E1,2E0,5.75107E0,5.488E3,-8.15135E1,-1.73459E0,1.62481E0,-9.8E1,-8.57714E1,1.94175E1,1.92675E1,1.1312E4,5.20789E1,1.7852563E0,6.4658374E-1,3.2437834E-1,-3.2951036E-1,-9.42258E1,-7.4E1,4.256E3,5.39167E1,8.96E2,4.256E3,2.19011E1,2.72361E1,1.73913E1,1.24711E1,3.10544E0,6.04545E1,6.9775E-1,-3.3720067E-1,-4.911456E-1,-2.4600458E-1,2.1440987E-1,-4.3869406E-1,-1.645977E-1,-3.4995162E-1,2.3757555E0,5.566582E-1,1.4624509E-1,-2.7039436E-1,5.158842E-1,1.6619278E-1,1.3174821E0,9.262642E-1,2.5343126E-1,3.6470633E-2,3.1092104E-1,5.2215225E-1,-1.2409439E-1,6.508253E-2,-1.8846561E-1,-3.3625707E-1],"split_indices":[11,9,0,6,11,9,0,7,3,1,0,14,11,9,10,0,0,0,0,0,1,9,10,9,9,10,10,14,11,12,10,0,0,0,0,0,0,0,0,0,0,0,0,0,0,0,0,0,0,0,0,0,0,0,0],"split_type":[0,0,0,0,0,0,0,0,0,0,0,0,0,0,0,0,0,0,0,0,0,0,0,0,0,0,0,0,0,0,0,0,0,0,0,0,0,0,0,0,0,0,0,0,0,0,0,0,0,0,0,0,0,0,0],"sum_hessian":[6.897E3,2.721E3,4.176E3,1.2E1,2.709E3,2.22E3,1.956E3,6E0,6E0,1.345E3,1.364E3,1.403E3,8.17E2,9.55E2,1.001E3,3E0,3E0,1E0,5E0,3E0,1.342E3,6.46E2,7.18E2,9.57E2,4.46E2,2.73E2,5.44E2,8.29E2,1.26E2,2.21E2,7.8E2,1E0,2E0,1.324E3,1.8E1,8E0,6.38E2,1.75E2,5.43E2,6E0,9.51E2,2.91E2,1.55E2,1.81E2,9.2E1,2.03E2,3.41E2,7.7E1,7.52E2,6E0,1.2E2,7.1E1,1.5E2,3.71E2,4.09E2],"tree_param":{"num_deleted":"0","num_feature":"15","num_nodes":"55","size_leaf_vector":"1"}},{"base_weights":[-2.1408893E-2,-4.6421623E0,1.2676818E1,-7.337189E0,8.6340666E-1,1.1134302E1,2.1082882E1,-8.122073E0,-3.8162363E0,3.7659514E0,-2.5572212E0,1.2219887E1,2.6749785E0,2.499119E1,8.168287E0,-9.182571E0,-7.062604E0,-2.069171E0,-6.996341E0,2.3255062E0,6.5771356E0,2.0527852E0,-4.422099E0,-7.4051623E0,1.2442768E1,5.0834107E0,-6.5753984E0,2.5172178E1,-3.480277E-1,2.974645E1,4.307082E0,-1.11384585E-1,-4.621128E-1,-3.993296E-1,-2.995673E-1,-1.10101E-1,1.2701178E0,-3.5573336E-1,4.670116E-1,-3.847601E-1,1.3356054E-1,1.1867758E0,2.923486E-1,1.6774867E-1,3.5393517E-2,-1.5991764E-1,-3.0605647E-1,-4.7978327E-1,-2.0076005E-1,5.0459063E-1,6.973672E-1,4.6868768E-1,1.4536555E-1,-4.1066846E-1,-1.8127415E-1,1.2723249E0,8.032937E-1,2.0133846E0,-4.1128346E-1,-2.0770614E-1,5.9052616E-1],"categories":[],"categories_nodes":[],"categories_segments":[],"categories_sizes":[],"default_left":[0,0,0,0,0,0,0,0,0,0,0,0,0,0,0,0,0,0,0,0,0,0,0,0,0,0,0,0,0,0,0,0,0,0,0,0,0,0,0,0,0,0,0,0,0,0,0,0,0,0,0,0,0,0,0,0,0,0,0,0,0],"id":6,"left_children":[1,3,5,7,9,11,13,15,17,19,21,23,25,27,29,31,33,35,37,39,41,43,45,47,49,51,53,55,-1,57,59,-1,-1,-1,-1,-1,-1,-1,-1,-1,-1,-1,-1,-1,-1,-1,-1,-1,-1,-1,-1,-1,-1,-1,-1,-1,-1,-1,-1,-1,-1],"loss_changes":[4.0157444E5,7.446171E4,2.3442062E4,9.279375E3,1.6391697E4,1.4155531E4,1.4029594E4,3.0294531E3,3.4079277E3,3.6007803E3,6.525678E3,6.0802344E3,3.9767915E3,1.4243125E3,5.454167E3,5.4933594E2,1.3200938E3,1.512112E3,4.8785645E2,2.071364E3,3.6448037E3,3.8116693E2,1.1031807E3,8.028308E1,4.6485938E3,1.289154E3,1.4900208E2,1.2826562E2,0E0,4.326365E3,3.7313745E3,0E0,0E0,0E0,0E0,0E0,0E0,0E0,0E0,0E0,0E0,0E0,0E0,0E0,0E0,0E0,0E0,0E0,0E0,0E0,0E0,0E0,0E0,0E0,0E0,0E0,0E0,0E0,0E0,0E0,0E0],"parents":[2147483647,0,0,1,1,2,2,3,3,4,4,5,5,6,6,7,7,8,8,9,9,10,10,11,11,12,12,13,13,14,14,15,15,16,16,17,17,18,18,19,19,20,20,21,21,22,22,23,23,24,24,25,25,26,26,27,27,29,29,30,30],"right_children":[2,4,6,8,10,12,14,16,18,20,22,24,26,28,30,32,34,36,38,40,42,44,46,48,50,52,54,56,-1,58,60,-1,-1,-1,-1,-1,-1,-1,-1,-1,-1,-1,-1,-1,-1,-1,-1,-1,-1,-1,-1,-1,-1,-1,-1,-1,-1,-1,-1,-1,-1],"split_conditions":[2.14286E1,5.40541E0,4.28571E1,2.43902E0,-8.28182E1,-9.2E1,3.72885E1,5.75107E0,9.90526E1,2.66252E1,5.16842E1,2.32193E0,-8.6E1,-9.5E1,1.93239E0,-9.5E1,-8.57714E1,3.26414E0,-6.6E1,2.68872E0,9.52381E0,-8.09706E1,-7.7E1,8.24522E1,2.89474E1,2.07263E1,5.63133E1,3.3193E1,-3.480277E-1,-9.37586E1,2.61295E0,-1.11384585E-1,-4.621128E-1,-3.993296E-1,-2.995673E-1,-1.10101E-1,1.2701178E0,-3.5573336E-1,4.670116E-1,-3.847601E-1,1.3356054E-1,1.1867758E0,2.923486E-1,1.6774867E-1,3.5393517E-2,-1.5991764E-1,-3.0605647E-1,-4.7978327E-1,-2.0076005E-1,5.0459063E-1,6.973672E-1,4.6868768E-1,1.4536555E-1,-4.1066846E-1,-1.8127415E-1,1.2723249E0,8.032937E-1,2.0133846E0,-4.1128346E-1,-2.0770614E-1,5.9052616E-1],"split_indices":[8,8,8,8,0,1,10,11,10,11,10,12,1,1,12,5,0,3,5,12,8,0,5,11,8,10,11,10,0,0,3,0,0,0,0,0,0,0,0,0,0,0,0,0,0,0,0,0,0,0,0,0,0,0,0,0,0,0,0,0,0],"split_type":[0,0,0,0,0,0,0,0,0,0,0,0,0,0,0,0,0,0,0,0,0,0,0,0,0,0,0,0,0,0,0,0,0,0,0,0,0,0,0,0,0,0,0,0,0,0,0,0,0,0,0,0,0,0,0,0,0,0,0,0,0],"sum_hessian":[6.842E3,5.017E3,1.825E3,3.368E3,1.649E3,1.544E3,2.81E2,2.753E3,6.15E2,8.92E2,7.57E2,1.368E3,1.76E2,2.15E2,6.6E1,1.372E3,1.381E3,3.98E2,2.17E2,5.91E2,3.01E2,2.18E2,5.39E2,1.5E1,1.353E3,1.4E2,3.6E1,2.14E2,1E0,9E0,5.7E1,1.2E1,1.36E3,7.38E2,6.43E2,3.97E2,1E0,2.16E2,1E0,1.9E1,5.72E2,1.1E1,2.9E2,1.1E2,1.08E2,3.15E2,2.24E2,8E0,7E0,5.31E2,8.22E2,4.6E1,9.4E1,2.2E1,1.4E1,2.06E2,8E0,7E0,2E0,2.7E1,3E1],"tree_param":{"num_deleted":"0","num_feature":"15","num_nodes":"61","size_leaf_vector":"1"}},{"base_weights":[-5.9054545E-3,-4.5946546E0,1.1800542E1,-7.805807E0,-5.291048E-1,1.0195417E1,2.0862816E1,-6.22526E0,-8.315074E0,2.8744407E0,-3.0929217E0,1.1841503E1,4.5571623E0,1.0188388E1,2.422821E1,1.4643716E1,-6.7509723E0,-4.518808E0,-8.497389E0,-4.6562114E0,3.4200983E0,1.2946748E0,-4.511896E0,-8.0445795E0,1.2102063E1,6.081882E0,-5.861403E0,3.5151073E1,5.997819E0,1.2137699E0,3.4853086E-1,9.573803E-1,-2.3904125E-1,5.5161935E-1,-3.4242606E-1,-3.4192473E-1,2.396241E-2,1.0452489E-1,-4.275891E-1,-4.7366562E-1,-1.9711629E-2,1.3048434E0,1.617069E-1,1.2467283E-1,-2.7939035E-2,-1.6252424E-1,-3.069916E-1,-5.3787854E-2,-4.7305295E-1,4.1625285E-1,6.460721E-1,1.8617131E-1,4.566588E-1,-1.5176037E-1,-4.0680304E-1,2.2361805E0,-1.0463556E-1,-1.0019014E-1,6.1138755E-1],"categories":[],"categories_nodes":[],"categories_segments":[],"categories_sizes":[],"default_left":[0,0,0,0,0,0,0,0,0,0,0,0,0,0,0,0,0,0,0,0,0,0,0,0,0,0,0,0,0,0,0,0,0,0,0,0,0,0,0,0,0,0,0,0,0,0,0,0,0,0,0,0,0,0,0,0,0,0,0],"id":7,"left_children":[1,3,5,7,9,11,13,15,17,19,21,23,25,27,29,31,33,35,37,39,41,43,45,47,49,51,53,55,57,-1,-1,-1,-1,-1,-1,-1,-1,-1,-1,-1,-1,-1,-1,-1,-1,-1,-1,-1,-1,-1,-1,-1,-1,-1,-1,-1,-1,-1,-1],"loss_changes":[3.7300747E5,6.4723047E4,2.7817562E4,2.177875E3,1.9110252E4,1.5157672E4,1.0135086E4,7.5482227E3,1.4095156E3,3.8826406E3,7.7819736E3,6.6675312E3,5.945015E3,7.216328E3,9.140625E0,1.5788032E3,1.2256973E3,1.1394817E3,1.1667969E3,1.31021E3,3.6181094E3,6.812912E2,1.918543E3,1.5763245E2,3.7671094E3,2.3048047E3,2.8387952E2,3.6587686E3,3.1151746E3,0E0,0E0,0E0,0E0,0E0,0E0,0E0,0E0,0E0,0E0,0E0,0E0,0E0,0E0,0E0,0E0,0E0,0E0,0E0,0E0,0E0,0E0,0E0,0E0,0E0,0E0,0E0,0E0,0E0,0E0],"parents":[2147483647,0,0,1,1,2,2,3,3,4,4,5,5,6,6,7,7,8,8,9,9,10,10,11,11,12,12,13,13,14,14,15,15,16,16,17,17,18,18,19,19,20,20,21,21,22,22,23,23,24,24,25,25,26,26,27,27,28,28],"right_children":[2,4,6,8,10,12,14,16,18,20,22,24,26,28,30,32,34,36,38,40,42,44,46,48,50,52,54,56,58,-1,-1,-1,-1,-1,-1,-1,-1,-1,-1,-1,-1,-1,-1,-1,-1,-1,-1,-1,-1,-1,-1,-1,-1,-1,-1,-1,-1,-1,-1],"split_conditions":[2.05128E1,2.43902E0,4.28571E1,4.256E3,-8.2697E1,-8.625E1,6.048E3,5.15135E1,4.95897E1,2.7027E0,5.15135E1,1.40334E0,-8.6E1,1.93239E0,-9.0225E1,3.03378E0,2.128E3,-8.46562E1,1.94175E1,2.43707E0,2.8E3,2.86522E1,6.04545E1,-3.04784E-1,2.55814E1,9.52E3,-7.4E1,-9.5E1,-8.8E1,1.2137699E0,3.4853086E-1,9.573803E-1,-2.3904125E-1,5.5161935E-1,-3.4242606E-1,-3.4192473E-1,2.396241E-2,1.0452489E-1,-4.275891E-1,-4.7366562E-1,-1.9711629E-2,1.3048434E0,1.617069E-1,1.2467283E-1,-2.7939035E-2,-1.6252424E-1,-3.069916E-1,-5.3787854E-2,-4.7305295E-1,4.1625285E-1,6.460721E-1,1.8617131E-1,4.566588E-1,-1.5176037E-1,-4.0680304E-1,2.2361805E0,-1.0463556E-1,-1.0019014E-1,6.1138755E-1],"split_indices":[8,8,8,9,0,0,9,10,10,8,10,3,1,12,0,12,9,0,14,12,9,10,10,7,8,9,5,1,2,0,0,0,0,0,0,0,0,0,0,0,0,0,0,0,0,0,0,0,0,0,0,0,0,0,0,0,0,0,0],"split_type":[0,0,0,0,0,0,0,0,0,0,0,0,0,0,0,0,0,0,0,0,0,0,0,0,0,0,0,0,0,0,0,0,0,0,0,0,0,0,0,0,0,0,0,0,0,0,0,0,0,0,0,0,0,0,0,0,0,0,0],"sum_hessian":[6.883E3,4.957E3,1.926E3,2.769E3,2.188E3,1.638E3,2.88E2,6.78E2,2.091E3,9.4E2,1.248E3,1.267E3,3.71E2,7E1,2.18E2,1.6E1,6.62E2,9.7E1,1.994E3,6.3E1,8.77E2,3.05E2,9.43E2,1.6E1,1.251E3,3.24E2,4.7E1,9E0,6.1E1,2.17E2,1E0,1.3E1,3E0,3E0,6.59E2,6.6E1,3.1E1,1E1,1.984E3,2.9E1,3.4E1,6E0,8.71E2,1.85E2,1.2E2,5.33E2,4.1E2,3E0,1.3E1,2.25E2,1.026E3,1.84E2,1.4E2,2.2E1,2.5E1,7E0,2E0,2.7E1,3.4E1],"tree_param":{"num_deleted":"0","num_feature":"15","num_nodes":"59","size_leaf_vector":"1"}},{"base_weights":[-1.916952E-2,-7.173799E0,4.6846128E0,1.2830842E1,-7.244604E0,9.527855E0,-7.491282E-1,2.6869116E1,-3.290628E-1,-8.400302E0,-6.134314E0,6.5724597E0,1.46138315E1,2.0041041E0,-3.4931867E0,1.4897181E0,3.0607244E-1,-3.9607222E0,-8.434272E0,-7.237665E0,-5.189647E0,8.789145E0,-2.8878927E0,6.4577765E0,1.874839E1,9.499308E-1,8.881359E0,2.4237417E-1,-4.497371E0,6.9163895E-1,-3.4179196E-1,-4.2515904E-1,-3.3126137E-1,6.612504E-1,-3.7917307E-1,-1.1276698E-1,-3.0167404E-1,5.3471607E-1,2.7387884E-1,-2.566074E-1,4.035293E-2,1.3486442E-1,4.3601617E-1,1.1819938E0,8.2515806E-1,1.9155642E-1,2.098277E-2,-2.3999859E-2,4.4788247E-1,-5.9600443E-2,8.650541E-2,-1.3201182E-1,-2.6997167E-1],"categories":[],"categories_nodes":[],"categories_segments":[],"categories_sizes":[],"default_left":[0,0,0,0,0,0,0,0,0,0,0,0,0,0,0,0,0,0,0,0,0,0,0,0,0,0,0,0,0,0,0,0,0,0,0,0,0,0,0,0,0,0,0,0,0,0,0,0,0,0,0,0,0],"id":8,"left_children":[1,3,5,7,9,11,13,15,-1,17,19,21,23,25,27,-1,-1,29,31,33,35,37,39,41,43,45,47,49,51,-1,-1,-1,-1,-1,-1,-1,-1,-1,-1,-1,-1,-1,-1,-1,-1,-1,-1,-1,-1,-1,-1,-1,-1],"loss_changes":[2.3187475E5,3.9640625E3,1.094066E5,2.901956E3,3.4437969E3,3.294222E4,1.481486E4,1.8176709E2,0E0,1.6747656E2,1.4143633E3,2.9216492E4,2.7092344E4,7.0891367E3,3.6847598E3,0E0,0E0,7.084593E2,1.0833594E2,4.628883E3,1.8533477E3,7.0581094E3,2.201632E3,2.2992383E3,5.4855E3,1.2970464E3,9.714258E1,4.4806424E2,1.2823887E3,0E0,0E0,0E0,0E0,0E0,0E0,0E0,0E0,0E0,0E0,0E0,0E0,0E0,0E0,0E0,0E0,0E0,0E0,0E0,0E0,0E0,0E0,0E0,0E0],"parents":[2147483647,0,0,1,1,2,2,3,3,4,4,5,5,6,6,7,7,9,9,10,10,11,11,12,12,13,13,14,14,17,17,18,18,19,19,20,20,21,21,22,22,23,23,24,24,25,25,26,26,27,27,28,28],"right_children":[2,4,6,8,10,12,14,16,-1,18,20,22,24,26,28,-1,-1,30,32,34,36,38,40,42,44,46,48,50,52,-1,-1,-1,-1,-1,-1,-1,-1,-1,-1,-1,-1,-1,-1,-1,-1,-1,-1,-1,-1,-1,-1,-1,-1],"split_conditions":[1.21783E1,2.128E3,-8.58667E1,2E0,5.75107E0,5.376E3,-8.14E1,-7.57647E1,-3.290628E-1,-9.42258E1,-8.57714E1,4.032E3,1.92675E1,1.0864E4,5.20789E1,1.4897181E0,3.0607244E-1,4.95E1,9.93158E1,4.256E3,5.39167E1,1.81818E1,-9.00882E1,1.0416E4,2.53205E1,1.8018E1,2.50914E0,3.77358E1,-7.8575E1,6.9163895E-1,-3.4179196E-1,-4.2515904E-1,-3.3126137E-1,6.612504E-1,-3.7917307E-1,-1.1276698E-1,-3.0167404E-1,5.3471607E-1,2.7387884E-1,-2.566074E-1,4.035293E-2,1.3486442E-1,4.3601617E-1,1.1819938E0,8.2515806E-1,1.9155642E-1,2.098277E-2,-2.3999859E-2,4.4788247E-1,-5.9600443E-2,8.650541E-2,-1.3201182E-1,-2.6997167E-1],"split_indices":[11,9,0,6,11,9,0,0,0,0,0,9,11,9,10,0,0,10,10,9,10,14,0,9,10,14,3,14,0,0,0,0,0,0,0,0,0,0,0,0,0,0,0,0,0,0,0,0,0,0,0,0,0],"split_type":[0,0,0,0,0,0,0,0,0,0,0,0,0,0,0,0,0,0,0,0,0,0,0,0,0,0,0,0,0,0,0,0,0,0,0,0,0,0,0,0,0,0,0,0,0,0,0,0,0,0,0,0,0],"sum_hessian":[6.888E3,2.732E3,4.156E3,9E0,2.723E3,2.197E3,1.959E3,5E0,4E0,1.331E3,1.392E3,1.391E3,8.06E2,9.78E2,9.81E2,4E0,1E0,1.1E1,1.32E3,6.39E2,7.53E2,1.127E3,2.64E2,2.72E2,5.34E2,8.49E2,1.29E2,2.08E2,7.73E2,1E0,1E1,1.268E3,5.2E1,1E1,6.29E2,1.69E2,5.84E2,7.14E2,4.13E2,1.64E2,1E2,1.03E2,1.69E2,1.65E2,3.69E2,1.31E2,7.18E2,1E0,1.28E2,1.06E2,1.02E2,2.54E2,5.19E2],"tree_param":{"num_deleted":"0","num_feature":"15","num_nodes":"53","size_leaf_vector":"1"}},{"base_weights":[-3.7151314E-2,-6.819516E0,4.41619E0,-7.8620872E0,-5.785672E0,9.151464E0,-7.565765E-1,3.5009816E0,-7.9068985E0,1.1400312E1,-5.86969E0,6.3032618E0,1.4021593E1,1.9239591E0,-3.1812184E0,8.701458E-1,-2.7599885E0,6.1414323E0,-7.9323735E0,8.888914E-1,-1.5144919E-1,-6.7080283E0,-5.131398E0,8.633096E0,-1.898872E0,6.218699E0,1.778795E1,9.131295E-1,8.279622E0,-2.5478715E-1,-4.384005E0,3.3219287E-1,-3.3859572E-1,6.74348E-1,-2.1374057E-1,-2.9812524E-1,-4.0286517E-1,5.900336E-1,-3.5266075E-1,-1.1692045E-1,-2.9883015E-1,1.8107662E0,4.2080846E-1,-2.3258226E-1,8.754826E-2,1.2443607E-1,4.1868925E-1,1.0757707E0,7.61615E-1,1.374607E-1,1.1365772E-2,3.6528477E-1,4.5773083E-1,-7.288322E-2,8.673955E-2,-1.3608168E-1,-2.6236746E-1],"categories":[],"categories_nodes":[],"categories_segments":[],"categories_sizes":[],"default_left":[0,0,0,0,0,0,0,0,0,0,0,0,0,0,0,0,0,0,0,0,0,0,0,0,0,0,0,0,0,0,0,0,0,0,0,0,0,0,0,0,0,0,0,0,0,0,0,0,0,0,0,0,0,0,0,0,0],"id":9,"left_children":[1,3,5,7,9,11,13,15,17,19,21,23,25,27,29,-1,31,33,35,-1,-1,37,39,41,43,45,47,49,51,53,55,-1,-1,-1,-1,-1,-1,-1,-1,-1,-1,-1,-1,-1,-1,-1,-1,-1,-1,-1,-1,-1,-1,-1,-1,-1,-1],"loss_changes":[2.0720062E5,2.8852031E3,1.01438516E5,7.156094E2,2.0436562E3,2.9900969E4,1.2874812E4,5.702694E2,5.3041406E2,6.9801013E2,8.091914E2,2.6120121E4,2.3312016E4,6.0378877E3,3.6595508E3,0E0,2.336293E2,2.871926E2,2.8270312E2,0E0,0E0,4.1402188E3,1.7069395E3,6.0614453E3,3.052439E3,2.0771875E3,4.7877812E3,1.0231148E3,4.3049805E1,7.300671E2,1.043459E3,0E0,0E0,0E0,0E0,0E0,0E0,0E0,0E0,0E0,0E0,0E0,0E0,0E0,0E0,0E0,0E0,0E0,0E0,0E0,0E0,0E0,0E0,0E0,0E0,0E0,0E0],"parents":[2147483647,0,0,1,1,2,2,3,3,4,4,5,5,6,6,7,7,8,8,9,9,10,10,11,11,12,12,13,13,14,14,16,16,17,17,18,18,21,21,22,22,23,23,24,24,25,25,26,26,27,27,28,28,29,29,30,30],"right_children":[2,4,6,8,10,12,14,16,18,20,22,24,26,28,30,-1,32,34,36,-1,-1,38,40,42,44,46,48,50,52,54,56,-1,-1,-1,-1,-1,-1,-1,-1,-1,-1,-1,-1,-1,-1,-1,-1,-1,-1,-1,-1,-1,-1,-1,-1,-1,-1],"split_conditions":[1.21783E1,5.75107E0,-8.58667E1,2.128E3,2.128E3,5.488E3,-8.16E1,1E0,-9.8E1,-7.2E1,-8.57714E1,3.92E3,1.92675E1,1.1312E4,5.32973E1,8.701458E-1,1.62481E0,-9.42258E1,3.696E3,8.888914E-1,-1.5144919E-1,4.256E3,5.39167E1,8.96E2,-9.00882E1,1.0416E4,2.72361E1,1.88679E1,1.45327E1,3.63636E1,-7.8575E1,3.3219287E-1,-3.3859572E-1,6.74348E-1,-2.1374057E-1,-2.9812524E-1,-4.0286517E-1,5.900336E-1,-3.5266075E-1,-1.1692045E-1,-2.9883015E-1,1.8107662E0,4.2080846E-1,-2.3258226E-1,8.754826E-2,1.2443607E-1,4.1868925E-1,1.0757707E0,7.61615E-1,1.374607E-1,1.1365772E-2,3.6528477E-1,4.5773083E-1,-7.288322E-2,8.673955E-2,-1.3608168E-1,-2.6236746E-1],"split_indices":[11,11,0,9,9,9,0,6,1,5,0,9,11,9,10,0,3,0,9,0,0,9,10,9,0,9,10,14,11,14,0,0,0,0,0,0,0,0,0,0,0,0,0,0,0,0,0,0,0,0,0,0,0,0,0,0,0],"split_type":[0,0,0,0,0,0,0,0,0,0,0,0,0,0,0,0,0,0,0,0,0,0,0,0,0,0,0,0,0,0,0,0,0,0,0,0,0,0,0,0,0,0,0,0,0,0,0,0,0,0,0,0,0,0,0,0,0],"sum_hessian":[6.858E3,2.718E3,4.14E3,1.35E3,1.368E3,2.161E3,1.979E3,5E0,1.345E3,6E0,1.362E3,1.365E3,7.96E2,9.4E2,1.039E3,1E0,4E0,2E0,1.343E3,4E0,2E0,6.34E2,7.28E2,1.063E3,3.02E2,2.6E2,5.36E2,8.12E2,1.28E2,3.03E2,7.36E2,1E0,3E0,1E0,1E0,8.3E1,1.26E3,1.1E1,6.23E2,1.7E2,5.58E2,7E0,1.056E3,1.72E2,1.3E2,9.6E1,1.64E2,2.15E2,3.21E2,2.2E2,5.92E2,6.5E1,6.3E1,1.89E2,1.14E2,2.53E2,4.83E2],"tree_param":{"num_deleted":"0","num_feature":"15","num_nodes":"57","size_leaf_vector":"1"}},{"base_weights":[9.987791E-2,-3.5236633E0,1.0915445E1,-6.601322E0,-4.733784E-2,9.535356E0,1.7180023E1,1.4162324E1,-6.6449056E0,2.7465863E0,-2.6287158E0,1.0273109E1,2.089086E0,7.061676E0,2.0820036E1,1.8074009E1,-1.3490246E-1,-5.3688087E0,-7.052081E0,-3.284551E0,3.35974E0,1.1290522E0,-3.886526E0,-4.960501E0,1.0519045E1,-8.4915286E-1,3.7636873E-1,3.57105E1,3.5296612E0,1.0429605E0,3.0014825E-1,9.915263E-1,2.7619836E-1,7.0239425E-1,-2.9679835E-1,-1.4437254E-1,-3.5838258E-1,5.868472E-1,-2.8360274E-1,3.661767E-1,1.2110134E-1,1.0670594E-1,-2.0384088E-2,-1.3885622E-1,-2.6273456E-1,1.4522566E0,-5.034367E-1,4.5107538E-1,5.886398E-1,3.3594146E-1,-1.2958704E-1,2.5721443E0,1.5921515E-1,-1.1648735E-1,4.8051992E-1],"categories":[],"categories_nodes":[],"categories_segments":[],"categories_sizes":[],"default_left":[0,0,0,0,0,0,0,0,0,0,0,0,0,0,0,0,0,0,0,0,0,0,0,0,0,0,0,0,0,0,0,0,0,0,0,0,0,0,0,0,0,0,0,0,0,0,0,0,0,0,0,0,0,0,0],"id":10,"left_children":[1,3,5,7,9,11,13,15,17,19,21,23,25,27,29,31,-1,33,35,37,39,41,43,45,47,49,-1,51,53,-1,-1,-1,-1,-1,-1,-1,-1,-1,-1,-1,-1,-1,-1,-1,-1,-1,-1,-1,-1,-1,-1,-1,-1,-1,-1],"loss_changes":[2.6751466E5,5.4703387E4,1.4646234E4,2.548336E3,1.7330863E4,7.702414E3,1.1196898E4,4.4447937E2,1.3686797E3,4.278543E3,5.9078613E3,4.8439375E3,2.0517026E3,8.2725625E3,5.9609375E0,6.7871094E-1,0E0,7.3405176E3,9.655E2,3.9040073E3,3.8775762E3,4.8584937E2,1.4061104E3,3.9403293E3,2.2575938E3,1.1251948E3,0E0,4.441621E3,2.6946038E3,0E0,0E0,0E0,0E0,0E0,0E0,0E0,0E0,0E0,0E0,0E0,0E0,0E0,0E0,0E0,0E0,0E0,0E0,0E0,0E0,0E0,0E0,0E0,0E0,0E0,0E0],"parents":[2147483647,0,0,1,1,2,2,3,3,4,4,5,5,6,6,7,7,8,8,9,9,10,10,11,11,12,12,13,13,14,14,15,15,17,17,18,18,19,19,20,20,21,21,22,22,23,23,24,24,25,25,27,27,28,28],"right_children":[2,4,6,8,10,12,14,16,18,20,22,24,26,28,30,32,-1,34,36,38,40,42,44,46,48,50,-1,52,54,-1,-1,-1,-1,-1,-1,-1,-1,-1,-1,-1,-1,-1,-1,-1,-1,-1,-1,-1,-1,-1,-1,-1,-1,-1,-1],"split_conditions":[2.32558E1,2.43902E0,4.28571E1,2.128E3,-8.2697E1,-9.2E1,6.048E3,2.71672E0,4.256E3,1.7119E0,5.16842E1,-9.1E1,8.96E3,-9.2E1,-9.0225E1,-7.57647E1,-1.3490246E-1,5.20789E1,4.93333E1,-7.7245E-1,-8.885E1,2.86522E1,6.0125E1,2.24E3,3.04598E1,-7.9E1,3.7636873E-1,8.96E2,2.61295E0,1.0429605E0,3.0014825E-1,9.915263E-1,2.7619836E-1,7.0239425E-1,-2.9679835E-1,-1.4437254E-1,-3.5838258E-1,5.868472E-1,-2.8360274E-1,3.661767E-1,1.2110134E-1,1.0670594E-1,-2.0384088E-2,-1.3885622E-1,-2.6273456E-1,1.4522566E0,-5.034367E-1,4.5107538E-1,5.886398E-1,3.3594146E-1,-1.2958704E-1,2.5721443E0,1.5921515E-1,-1.1648735E-1,4.8051992E-1],"split_indices":[8,8,8,9,0,1,9,3,9,3,10,2,9,2,0,0,0,10,10,7,0,10,10,9,8,2,0,9,3,0,0,0,0,0,0,0,0,0,0,0,0,0,0,0,0,0,0,0,0,0,0,0,0,0,0],"split_type":[0,0,0,0,0,0,0,0,0,0,0,0,0,0,0,0,0,0,0,0,0,0,0,0,0,0,0,0,0,0,0,0,0,0,0,0,0,0,0,0,0,0,0,0,0,0,0,0,0,0,0,0,0,0,0],"sum_hessian":[6.824E3,5.112E3,1.712E3,2.711E3,2.401E3,1.405E3,3.07E2,5E0,2.706E3,1.153E3,1.248E3,1.278E3,1.27E2,8.2E1,2.25E2,4E0,1E0,6.58E2,2.048E3,1.06E2,1.047E3,3.13E2,9.35E2,2E1,1.258E3,8.3E1,4.4E1,8E0,7.4E1,2.24E2,1E0,3E0,1E0,1.8E1,6.4E2,5.6E1,1.992E3,1.4E1,9.2E1,1.99E2,8.48E2,1.89E2,1.24E2,5.18E2,4.17E2,2E0,1.8E1,5.77E2,6.81E2,1.5E1,6.8E1,5E0,3E0,3.8E1,3.6E1],"tree_param":{"num_deleted":"0","num_feature":"15","num_nodes":"55","size_leaf_vector":"1"}},{"base_weights":[-3.173736E-2,-3.5064948E0,1.0356062E1,-5.7740526E0,7.311187E-1,7.867049E0,1.3047464E1,-6.3928027E0,-2.9340723E0,2.8919106E0,-2.1593664E0,8.773988E0,-8.5742414E-1,7.305883E0,1.6146923E1,-7.2139783E0,-5.6085477E0,-1.436093E0,-5.489729E0,1.9193605E1,2.7120383E0,-3.5642853E0,1.5221643E0,9.749448E0,5.667272E-1,9.930143E-1,-7.337527E0,-2.3686924E0,7.449474E0,1.3648513E1,1.9585468E1,6.664488E-1,-3.619685E-1,-3.3079645E-1,-2.2856987E-1,4.8935366E-1,-8.9908175E-2,-1.4184318E-1,-2.978449E-1,-3.729112E-1,1.1302305E0,-2.8160682E-1,1.4687753E-1,-1.383196E-1,-2.3637019E-1,1.3029489E-1,3.1838372E-2,2.0622249E0,4.7141835E-1,-5.615771E-1,1.4916329E-1,2.0181166E-1,-5.8103215E-2,-4.1439748E-1,-8.507266E-2,-1.5696672E-1,1.7846847E-2,3.102141E-1,4.0427876E-1,6.6896766E-1,1.1102076E0,1.0108687E0,5.885E-1],"categories":[],"categories_nodes":[],"categories_segments":[],"categories_sizes":[],"default_left":[0,0,0,0,0,0,0,0,0,0,0,0,0,0,0,0,0,0,0,0,0,0,0,0,0,0,0,0,0,0,0,0,0,0,0,0,0,0,0,0,0,0,0,0,0,0,0,0,0,0,0,0,0,0,0,0,0,0,0,0,0,0,0],"id":11,"left_children":[1,3,5,7,9,11,13,15,17,19,21,23,25,27,29,31,33,35,37,39,41,43,45,47,49,51,53,55,57,59,61,-1,-1,-1,-1,-1,-1,-1,-1,-1,-1,-1,-1,-1,-1,-1,-1,-1,-1,-1,-1,-1,-1,-1,-1,-1,-1,-1,-1,-1,-1,-1,-1],"loss_changes":[2.468184E5,4.9240906E4,1.1379328E4,5.8469062E3,1.1167375E4,7.0734336E3,1.4510172E4,1.7241328E3,2.2852803E3,2.9476094E3,3.962199E3,6.471215E3,1.0265238E3,4.205078E2,4.3116406E3,7.9283594E2,1.43875E3,1.5576943E3,2.5699512E2,1.1685955E3,1.9227207E3,5.0105908E2,2.017619E2,6.9224297E3,2.5139612E3,4.4410156E2,8.7674805E1,1.1622957E1,1.7636816E2,4.2140234E2,8.5840625E2,0E0,0E0,0E0,0E0,0E0,0E0,0E0,0E0,0E0,0E0,0E0,0E0,0E0,0E0,0E0,0E0,0E0,0E0,0E0,0E0,0E0,0E0,0E0,0E0,0E0,0E0,0E0,0E0,0E0,0E0,0E0,0E0],"parents":[2147483647,0,0,1,1,2,2,3,3,4,4,5,5,6,6,7,7,8,8,9,9,10,10,11,11,12,12,13,13,14,14,15,15,16,16,17,17,18,18,19,19,20,20,21,21,22,22,23,23,24,24,25,25,26,26,27,27,28,28,29,29,30,30],"right_children":[2,4,6,8,10,12,14,16,18,20,22,24,26,28,30,32,34,36,38,40,42,44,46,48,50,52,54,56,58,60,62,-1,-1,-1,-1,-1,-1,-1,-1,-1,-1,-1,-1,-1,-1,-1,-1,-1,-1,-1,-1,-1,-1,-1,-1,-1,-1,-1,-1,-1,-1,-1,-1],"split_conditions":[2.32558E1,5.40541E0,4.48E3,2.43902E0,-8.2697E1,-8.5375E1,1.94979E1,5.75107E0,9.90526E1,3.136E3,4.368E3,2E1,-8.1E1,8.96E3,4E1,-9.8E1,-8E1,4.032E3,9.80392E0,-9.42258E1,-9.42258E1,-7.7E1,-8.11026E1,1.93239E0,-9.42258E1,2.5641E1,-7.8E1,-8.42727E1,1.44181E1,8.736E3,3.3193E1,6.664488E-1,-3.619685E-1,-3.3079645E-1,-2.2856987E-1,4.8935366E-1,-8.9908175E-2,-1.4184318E-1,-2.978449E-1,-3.729112E-1,1.1302305E0,-2.8160682E-1,1.4687753E-1,-1.383196E-1,-2.3637019E-1,1.3029489E-1,3.1838372E-2,2.0622249E0,4.7141835E-1,-5.615771E-1,1.4916329E-1,2.0181166E-1,-5.8103215E-2,-4.1439748E-1,-8.507266E-2,-1.5696672E-1,1.7846847E-2,3.102141E-1,4.0427876E-1,6.6896766E-1,1.1102076E0,1.0108687E0,5.885E-1],"split_indices":[8,8,9,8,0,0,11,11,10,9,9,14,1,9,8,1,2,9,14,0,0,5,0,12,0,8,1,0,11,9,10,0,0,0,0,0,0,0,0,0,0,0,0,0,0,0,0,0,0,0,0,0,0,0,0,0,0,0,0,0,0,0,0],"split_type":[0,0,0,0,0,0,0,0,0,0,0,0,0,0,0,0,0,0,0,0,0,0,0,0,0,0,0,0,0,0,0,0,0,0,0,0,0,0,0,0,0,0,0,0,0,0,0,0,0,0,0,0,0,0,0,0,0,0,0,0,0,0,0],"sum_hessian":[6.836E3,5.123E3,1.713E3,3.337E3,1.786E3,8.92E2,8.21E2,2.739E3,5.98E2,1.022E3,7.64E2,8.08E2,8.4E1,2.89E2,5.32E2,1.334E3,1.405E3,3.78E2,2.2E2,1E1,1.012E3,5.53E2,2.11E2,7.22E2,8.6E1,6.6E1,1.8E1,4E0,2.85E2,3.11E2,2.21E2,1E0,1.333E3,7.1E2,6.95E2,1.1E1,3.67E2,3.4E1,1.86E2,1E0,9E0,2.6E1,9.86E2,3.3E2,2.23E2,9.4E1,1.17E2,6E0,7.16E2,1.4E1,7.2E1,2.7E1,3.9E1,1.5E1,3E0,3E0,1E0,1E2,1.85E2,3.04E2,7E0,2.03E2,1.8E1],"tree_param":{"num_deleted":"0","num_feature":"15","num_nodes":"63","size_leaf_vector":"1"}},{"base_weights":[1.8809746E-3,-3.1853824E0,9.71768E0,-5.3635135E0,7.167648E-1,7.246988E0,1.2446388E1,-5.904705E0,-2.685668E0,2.7313511E0,-2.0120175E0,7.9415226E0,-3.6910856E0,9.859946E0,1.8603518E1,1.389499E1,-5.9456677E0,-1.1587862E0,-5.700781E0,5.563482E0,1.6671538E0,-3.2345686E0,1.9903225E0,8.805495E0,3.6247256E-1,3.419467E0,-4.6511436E0,1.2704192E1,7.0407195E0,9.561824E-1,5.8145994E-1,8.826917E-1,-1.22480705E-1,-2.3398443E-1,-3.1810707E-1,-3.2331595E-1,-3.629629E-2,-2.9176584E-1,4.8643398E-1,-2.6106477E-1,3.365762E-1,2.1833323E-1,5.5143286E-2,-1.0877609E-1,-2.119296E-1,2.0701681E-1,6.843307E-2,1.6091769E0,4.239939E-1,3.7571302E-1,-1.5794782E-1,4.814888E-1,-1.8228547E-1,-1.3820975E-1,-3.4727964E-1,-5.420772E-2,6.453243E-1,3.167104E-1,3.757347E-1],"categories":[],"categories_nodes":[],"categories_segments":[],"categories_sizes":[],"default_left":[0,0,0,0,0,0,0,0,0,0,0,0,0,0,0,0,0,0,0,0,0,0,0,0,0,0,0,0,0,0,0,0,0,0,0,0,0,0,0,0,0,0,0,0,0,0,0,0,0,0,0,0,0,0,0,0,0,0,0],"id":12,"left_children":[1,3,5,7,9,11,13,15,17,19,21,23,25,27,29,31,33,35,37,39,41,43,45,47,49,51,53,55,57,-1,-1,-1,-1,-1,-1,-1,-1,-1,-1,-1,-1,-1,-1,-1,-1,-1,-1,-1,-1,-1,-1,-1,-1,-1,-1,-1,-1,-1,-1],"loss_changes":[2.1274197E5,4.397117E4,1.1350625E4,4.795578E3,1.0197615E4,6.8133164E3,1.2636242E4,2.3219297E3,2.5714778E3,3.2066045E3,3.8621729E3,5.497207E3,3.8453766E2,4.473121E3,6.3733594E2,4.1186597E2,1.4233125E3,8.522438E2,4.4702246E2,3.7008955E3,1.1787898E3,6.330171E2,2.4160065E2,5.4667812E3,2.2147898E3,3.422459E2,1.8861743E2,8.005742E2,4.8841797E1,0E0,0E0,0E0,0E0,0E0,0E0,0E0,0E0,0E0,0E0,0E0,0E0,0E0,0E0,0E0,0E0,0E0,0E0,0E0,0E0,0E0,0E0,0E0,0E0,0E0,0E0,0E0,0E0,0E0,0E0],"parents":[2147483647,0,0,1,1,2,2,3,3,4,4,5,5,6,6,7,7,8,8,9,9,10,10,11,11,12,12,13,13,14,14,15,15,16,16,17,17,18,18,19,19,20,20,21,21,22,22,23,23,24,24,25,25,26,26,27,27,28,28],"right_children":[2,4,6,8,10,12,14,16,18,20,22,24,26,28,30,32,34,36,38,40,42,44,46,48,50,52,54,56,58,-1,-1,-1,-1,-1,-1,-1,-1,-1,-1,-1,-1,-1,-1,-1,-1,-1,-1,-1,-1,-1,-1,-1,-1,-1,-1,-1,-1,-1,-1],"split_conditions":[2.32558E1,5.26316E0,4.48E3,2.43902E0,-8.2697E1,-7.7E1,3.93939E1,2.128E3,9.90526E1,-8.84839E1,7.392E3,2E1,-3.43764E0,9.968E3,3.3193E1,1E0,2E1,2.39911E0,-6.6E1,-9.42258E1,1.81818E1,-7.91875E1,1.31313E1,5E0,-9.9414E-2,9.43396E0,-7.4E1,2.36842E1,1.6E1,9.561824E-1,5.8145994E-1,8.826917E-1,-1.22480705E-1,-2.3398443E-1,-3.1810707E-1,-3.2331595E-1,-3.629629E-2,-2.9176584E-1,4.8643398E-1,-2.6106477E-1,3.365762E-1,2.1833323E-1,5.5143286E-2,-1.0877609E-1,-2.119296E-1,2.0701681E-1,6.843307E-2,1.6091769E0,4.239939E-1,3.7571302E-1,-1.5794782E-1,4.814888E-1,-1.8228547E-1,-1.3820975E-1,-3.4727964E-1,-5.420772E-2,6.453243E-1,3.167104E-1,3.757347E-1],"split_indices":[8,8,9,8,0,2,8,9,10,0,9,14,7,9,10,6,14,12,5,0,14,0,8,4,7,14,5,8,10,0,0,0,0,0,0,0,0,0,0,0,0,0,0,0,0,0,0,0,0,0,0,0,0,0,0,0,0,0,0],"split_type":[0,0,0,0,0,0,0,0,0,0,0,0,0,0,0,0,0,0,0,0,0,0,0,0,0,0,0,0,0,0,0,0,0,0,0,0,0,0,0,0,0,0,0,0,0,0,0,0,0,0,0,0,0,0,0,0,0,0,0],"sum_hessian":[6.868E3,5.172E3,1.696E3,3.319E3,1.853E3,8.92E2,8.04E2,2.76E3,5.59E2,1.066E3,7.87E2,8.39E2,5.3E1,5.68E2,2.36E2,5E0,2.755E3,3.72E2,1.87E2,2.9E2,7.76E2,6.03E2,1.84E2,7.53E2,8.6E1,6E0,4.7E1,2.81E2,2.87E2,2.18E2,1.8E1,4E0,1E0,6.85E2,2.07E3,2.7E1,3.45E2,1.86E2,1E0,2.8E1,2.62E2,1.33E2,6.43E2,2.95E2,3.08E2,4E1,1.44E2,9E0,7.44E2,2.8E1,5.8E1,3E0,3E0,2.7E1,2E1,4E0,2.77E2,1.21E2,1.66E2],"tree_param":{"num_deleted":"0","num_feature":"15","num_nodes":"59","size_leaf_vector":"1"}},{"base_weights":[-5.75646E-2,-3.3997097E0,8.649587E0,-5.8114038E0,-3.5331422E-1,6.3497334E0,1.1570344E1,3.2706955E-1,-5.8832655E0,2.0791464E0,-2.1885576E0,7.1671395E0,-2.9182008E-1,1.7559317E1,9.31657E0,9.260774E0,-1.5989766E0,-6.1648893E0,-4.6928234E0,1.6645771E0,1.9109112E0,9.1212034E-1,-3.2419057E0,-8.363634E0,7.424966E0,1.4085242E0,-7.3762217E0,1.0176118E1,1.8259176E1,1.1951619E1,7.369792E0,-1.1822405E-1,1.0837095E0,-3.3038852E-1,5.606937E-2,-2.3087744E-1,-3.2296783E-1,6.081119E-1,-2.4223493E-1,-2.0762186E-1,1.1756058E-1,-3.0332452E-2,9.30286E-2,-1.2071969E-1,-2.1800272E-1,-2.933658E-1,-5.773139E-1,1.8650969E0,3.660526E-1,3.1607398E-1,-6.8754773E-3,-1.1058446E-1,-3.8813815E-1,9.54771E-3,5.321255E-1,1.0471815E0,8.745391E-1,-3.8569546E-1,6.029077E-1,1.272943E0,3.3849695E-1],"categories":[],"categories_nodes":[],"categories_segments":[],"categories_sizes":[],"default_left":[0,0,0,0,0,0,0,0,0,0,0,0,0,0,0,0,0,0,0,0,0,0,0,0,0,0,0,0,0,0,0,0,0,0,0,0,0,0,0,0,0,0,0,0,0,0,0,0,0,0,0,0,0,0,0,0,0,0,0,0,0],"id":13,"left_children":[1,3,5,7,9,11,13,15,17,19,21,23,25,27,29,31,33,35,37,-1,39,41,43,45,47,49,51,53,55,57,59,-1,-1,-1,-1,-1,-1,-1,-1,-1,-1,-1,-1,-1,-1,-1,-1,-1,-1,-1,-1,-1,-1,-1,-1,-1,-1,-1,-1,-1,-1],"loss_changes":[1.9986298E5,3.6460977E4,1.2723016E4,1.2238438E3,9.798912E3,5.8001016E3,1.1147555E4,5.826297E2,8.89E2,4.89335E3,4.0888394E3,3.8701328E3,1.4318083E3,9.923047E2,3.0462656E3,9.1710266E2,3.8893066E2,9.7758594E2,1.4105293E3,0E0,2.519276E3,4.5920114E2,8.5368555E2,5.937256E1,2.6328594E3,7.300464E2,2.8746216E1,1.0042163E2,6.0664062E1,6.3353906E2,3.6688223E3,0E0,0E0,0E0,0E0,0E0,0E0,0E0,0E0,0E0,0E0,0E0,0E0,0E0,0E0,0E0,0E0,0E0,0E0,0E0,0E0,0E0,0E0,0E0,0E0,0E0,0E0,0E0,0E0,0E0,0E0],"parents":[2147483647,0,0,1,1,2,2,3,3,4,4,5,5,6,6,7,7,8,8,9,9,10,10,11,11,12,12,13,13,14,14,15,15,16,16,17,17,18,18,20,20,21,21,22,22,23,23,24,24,25,25,26,26,27,27,28,28,29,29,30,30],"right_children":[2,4,6,8,10,12,14,16,18,20,22,24,26,28,30,32,34,36,38,-1,40,42,44,46,48,50,52,54,56,58,60,-1,-1,-1,-1,-1,-1,-1,-1,-1,-1,-1,-1,-1,-1,-1,-1,-1,-1,-1,-1,-1,-1,-1,-1,-1,-1,-1,-1,-1,-1],"split_conditions":[2.05128E1,2.43902E0,3.25581E1,4.9E1,-8.28182E1,-9.1E1,2.86522E1,-8.9E1,9.81E1,-3.91796E0,5.16842E1,1.51327E0,-7.67895E1,3.68421E1,3.956E1,0E0,-8.65E1,-9.26053E1,-8.4E1,1.6645771E0,-9.37E1,7.5E0,6.04545E1,6E0,2.38797E0,1.71565E1,-8E1,-9.41282E1,4.62069E1,7.90174E-1,1.93239E0,-1.1822405E-1,1.0837095E0,-3.3038852E-1,5.606937E-2,-2.3087744E-1,-3.2296783E-1,6.081119E-1,-2.4223493E-1,-2.0762186E-1,1.1756058E-1,-3.0332452E-2,9.30286E-2,-1.2071969E-1,-2.1800272E-1,-2.933658E-1,-5.773139E-1,1.8650969E0,3.660526E-1,3.1607398E-1,-6.8754773E-3,-1.1058446E-1,-3.8813815E-1,9.54771E-3,5.321255E-1,1.0471815E0,8.745391E-1,-3.8569546E-1,6.029077E-1,1.272943E0,3.3849695E-1],"split_indices":[8,8,8,10,0,1,10,2,10,7,10,3,0,8,10,6,0,0,1,0,0,8,10,4,12,10,5,0,8,3,12,0,0,0,0,0,0,0,0,0,0,0,0,0,0,0,0,0,0,0,0,0,0,0,0,0,0,0,0,0,0],"split_type":[0,0,0,0,0,0,0,0,0,0,0,0,0,0,0,0,0,0,0,0,0,0,0,0,0,0,0,0,0,0,0,0,0,0,0,0,0,0,0,0,0,0,0,0,0,0,0,0,0,0,0,0,0,0,0,0,0,0,0,0,0],"sum_hessian":[6.866E3,4.962E3,1.904E3,2.769E3,2.193E3,1.067E3,8.37E2,3.2E1,2.737E3,9.43E2,1.25E3,9.5E2,1.17E2,2.27E2,6.1E2,5E0,2.7E1,2.21E3,5.27E2,4E0,9.39E2,3.17E2,9.33E2,1.5E1,9.35E2,9.5E1,2.2E1,2.1E1,2.06E2,2.57E2,3.53E2,3E0,2E0,9E0,1.8E1,3.56E2,1.854E3,4E0,5.23E2,6.3E1,8.76E2,1.22E2,1.95E2,5.38E2,3.95E2,1E1,5E0,2E0,9.33E2,2.2E1,7.3E1,2E0,2E1,1E0,2E1,4E1,1.66E2,1E0,2.56E2,1E1,3.43E2],"tree_param":{"num_deleted":"0","num_feature":"15","num_nodes":"61","size_leaf_vector":"1"}},{"base_weights":[4.313685E-2,-2.9327087E0,9.032754E0,-5.390782E0,-1.539983E-1,6.7580104E0,1.1421312E1,7.3111075E-1,-5.4178133E0,1.7823486E0,-2.5150433E0,7.456906E0,-1.8965032E0,6.2097116E0,1.4129159E1,-6.2226634E0,-4.707219E0,3.1980407E0,5.6364316E-1,1.14690915E-1,-3.254312E0,-9.9019985E0,7.7051754E0,-4.0968978E-1,-6.2453847E0,-2.452972E0,6.3399E0,1.1919753E1,1.6889599E1,3.0885318E-1,-3.1233382E-1,-2.2152065E-1,-3.7524277E-1,-2.125391E-1,1.9141722E-1,8.054847E-2,-1.5153694E-2,-3.5715207E-2,1.1293193E-1,-8.892904E-2,-1.9719066E-1,4.3023258E-1,-6.183331E-1,4.1294393E-1,-9.4682835E-3,4.742628E-1,-5.0357092E-2,-3.6366856E-1,-5.430428E-2,-1.6277461E-1,1.8927742E-2,2.669601E-1,3.5025167E-1,5.856847E-1,9.582899E-1,5.274788E-1,8.705452E-1],"categories":[],"categories_nodes":[],"categories_segments":[],"categories_sizes":[],"default_left":[0,0,0,0,0,0,0,0,0,0,0,0,0,0,0,0,0,0,0,0,0,0,0,0,0,0,0,0,0,0,0,0,0,0,0,0,0,0,0,0,0,0,0,0,0,0,0,0,0,0,0,0,0,0,0,0,0],"id":14,"left_children":[1,3,5,7,9,11,13,-1,15,17,19,21,23,25,27,29,31,33,35,37,39,41,43,45,47,49,51,53,55,-1,-1,-1,-1,-1,-1,-1,-1,-1,-1,-1,-1,-1,-1,-1,-1,-1,-1,-1,-1,-1,-1,-1,-1,-1,-1,-1,-1],"loss_changes":[1.8554961E5,3.5591727E4,9.295359E3,1.5750312E3,1.1191683E4,5.373203E3,1.1766523E4,0E0,1.5503516E3,2.3187417E3,2.1446934E3,3.6102383E3,4.3066168E2,3.414795E2,3.165289E3,4.2328516E2,1.1058984E3,2.9365757E3,6.576888E2,4.3350266E2,8.6906836E2,6.5376294E2,3.5378984E3,3.1105252E2,8.226318E1,1.259417E1,1.5229395E2,2.3836328E2,6.194531E2,0E0,0E0,0E0,0E0,0E0,0E0,0E0,0E0,0E0,0E0,0E0,0E0,0E0,0E0,0E0,0E0,0E0,0E0,0E0,0E0,0E0,0E0,0E0,0E0,0E0,0E0,0E0,0E0],"parents":[2147483647,0,0,1,1,2,2,3,3,4,4,5,5,6,6,8,8,9,9,10,10,11,11,12,12,13,13,14,14,15,15,16,16,17,17,18,18,19,19,20,20,21,21,22,22,23,23,24,24,25,25,26,26,27,27,28,28],"right_children":[2,4,6,8,10,12,14,-1,16,18,20,22,24,26,28,30,32,34,36,38,40,42,44,46,48,50,52,54,56,-1,-1,-1,-1,-1,-1,-1,-1,-1,-1,-1,-1,-1,-1,-1,-1,-1,-1,-1,-1,-1,-1,-1,-1,-1,-1,-1,-1],"split_conditions":[2.32558E1,2.43902E0,4.48E3,2.128E3,-8.8E1,-7.8E1,1.94979E1,7.3111075E-1,5.56546E0,-8E1,5.23243E1,4.93333E1,-8.1E1,8.96E3,3.93939E1,-9.8E1,3.21925E0,2.7027E0,5.06316E1,8.4E3,-7.9E1,4E1,6.5037E1,-3.91796E0,-7.8E1,-9.1E1,1.45327E1,8.736E3,6.832E3,3.0885318E-1,-3.1233382E-1,-2.2152065E-1,-3.7524277E-1,-2.125391E-1,1.9141722E-1,8.054847E-2,-1.5153694E-2,-3.5715207E-2,1.1293193E-1,-8.892904E-2,-1.9719066E-1,4.3023258E-1,-6.183331E-1,4.1294393E-1,-9.4682835E-3,4.742628E-1,-5.0357092E-2,-3.6366856E-1,-5.430428E-2,-1.6277461E-1,1.8927742E-2,2.669601E-1,3.5025167E-1,5.856847E-1,9.582899E-1,5.274788E-1,8.705452E-1],"split_indices":[8,8,9,9,1,2,11,0,11,2,10,10,1,9,8,1,12,8,10,9,5,8,11,7,1,1,11,9,9,0,0,0,0,0,0,0,0,0,0,0,0,0,0,0,0,0,0,0,0,0,0,0,0,0,0,0,0],"split_type":[0,0,0,0,0,0,0,0,0,0,0,0,0,0,0,0,0,0,0,0,0,0,0,0,0,0,0,0,0,0,0,0,0,0,0,0,0,0,0,0,0,0,0,0,0,0,0,0,0,0,0,0,0,0,0,0,0],"sum_hessian":[6.934E3,5.21E3,1.724E3,2.764E3,2.446E3,8.85E2,8.39E2,3E0,2.761E3,1.344E3,1.102E3,8.19E2,6.6E1,2.88E2,5.51E2,1.291E3,1.47E3,6.21E2,7.23E2,2.42E2,8.6E2,1.1E1,8.08E2,5E1,1.6E1,4E0,2.84E2,3.09E2,2.42E2,2E0,1.289E3,1.34E3,1.3E2,4.8E1,5.73E2,3.27E2,3.96E2,1.75E2,6.7E1,2.75E2,5.85E2,1E0,1E1,7.55E2,5.3E1,2E0,4.8E1,1.3E1,3E0,3E0,1E0,1.17E2,1.67E2,3.03E2,6E0,2E1,2.22E2],"tree_param":{"num_deleted":"0","num_feature":"15","num_nodes":"57","size_leaf_vector":"1"}},{"base_weights":[3.5264034E-2,-2.885631E0,8.58486E0,-4.6481013E0,4.2597905E-1,7.514617E0,1.3742062E1,-5.0930104E0,-2.4462001E0,2.1095135E0,-1.7107798E0,8.185283E0,1.3076314E0,5.7220635E0,1.6271788E1,-5.869785E0,-4.408165E0,-9.9384165E-1,-4.3018875E0,1.4271736E0,2.0003583E0,-2.8389165E0,1.4311979E0,-7.6371946E0,8.387922E0,4.1317244E0,-3.3711078E0,3.0989912E1,2.572596E0,8.1694746E-1,2.9165345E-1,7.98364E-1,-2.9495227E-1,-2.0608921E-1,-3.5645014E-1,1.8904604E0,-6.8070315E-2,-5.0829597E-2,-2.3595944E-1,-2.7056554E-1,1.1310673E-1,-9.797974E-2,-1.8248485E-1,1.2838957E-1,1.7248156E-2,-4.4833103E-1,-2.5103816E-1,2.9249957E-1,4.492528E-1,2.7732147E-2,2.7219802E-1,-2.207828E-1,2.1365483E-1,2.13992E0,4.2409143E-1,8.204795E-1,1.9056065E-2],"categories":[],"categories_nodes":[],"categories_segments":[],"categories_sizes":[],"default_left":[0,0,0,0,0,0,0,0,0,0,0,0,0,0,0,0,0,0,0,0,0,0,0,0,0,0,0,0,0,0,0,0,0,0,0,0,0,0,0,0,0,0,0,0,0,0,0,0,0,0,0,0,0,0,0,0,0],"id":15,"left_children":[1,3,5,7,9,11,13,15,17,19,21,23,25,27,29,31,33,35,37,-1,39,41,43,45,47,49,51,53,55,-1,-1,-1,-1,-1,-1,-1,-1,-1,-1,-1,-1,-1,-1,-1,-1,-1,-1,-1,-1,-1,-1,-1,-1,-1,-1,-1,-1],"loss_changes":[1.7073661E5,2.974536E4,9.506109E3,3.2458516E3,6.3744404E3,6.0003984E3,5.952832E3,1.4455547E3,1.507689E3,2.8023384E3,2.7723801E3,4.2418125E3,1.8902023E3,5.729635E3,6.313672E1,9.203633E2,1.1191484E3,4.558465E3,3.324585E2,0E0,1.9291584E3,4.027871E2,2.5467795E2,1.4112671E1,1.8978672E3,4.1474426E2,4.5004462E2,1.7632822E3,1.9950919E3,0E0,0E0,0E0,0E0,0E0,0E0,0E0,0E0,0E0,0E0,0E0,0E0,0E0,0E0,0E0,0E0,0E0,0E0,0E0,0E0,0E0,0E0,0E0,0E0,0E0,0E0,0E0,0E0],"parents":[2147483647,0,0,1,1,2,2,3,3,4,4,5,5,6,6,7,7,8,8,9,9,10,10,11,11,12,12,13,13,14,14,15,15,16,16,17,17,18,18,20,20,21,21,22,22,23,23,24,24,25,25,26,26,27,27,28,28],"right_children":[2,4,6,8,10,12,14,16,18,20,22,24,26,28,30,32,34,36,38,-1,40,42,44,46,48,50,52,54,56,-1,-1,-1,-1,-1,-1,-1,-1,-1,-1,-1,-1,-1,-1,-1,-1,-1,-1,-1,-1,-1,-1,-1,-1,-1,-1,-1,-1],"split_conditions":[2.30769E1,5.26316E0,4.28571E1,2.43902E0,-8.2697E1,-9.2E1,6.048E3,5.56546E0,5.39167E1,-4.90148E0,4.368E3,2.32193E0,6.96429E1,-9.2E1,2.89378E1,2.128E3,3.21925E0,3.92E3,9.80392E0,1.4271736E0,-9.38056E1,-7.91875E1,-8.09706E1,8.24522E1,2.039E1,2.38095E1,3.32393E0,8.96E2,-1.45712E0,8.1694746E-1,2.9165345E-1,7.98364E-1,-2.9495227E-1,-2.0608921E-1,-3.5645014E-1,1.8904604E0,-6.8070315E-2,-5.0829597E-2,-2.3595944E-1,-2.7056554E-1,1.1310673E-1,-9.797974E-2,-1.8248485E-1,1.2838957E-1,1.7248156E-2,-4.4833103E-1,-2.5103816E-1,2.9249957E-1,4.492528E-1,2.7732147E-2,2.7219802E-1,-2.207828E-1,2.1365483E-1,2.13992E0,4.2409143E-1,8.204795E-1,1.9056065E-2],"split_indices":[8,8,8,8,0,1,9,11,10,7,9,12,10,2,11,9,12,9,14,0,0,0,0,11,11,8,12,9,7,0,0,0,0,0,0,0,0,0,0,0,0,0,0,0,0,0,0,0,0,0,0,0,0,0,0,0,0],"split_type":[0,0,0,0,0,0,0,0,0,0,0,0,0,0,0,0,0,0,0,0,0,0,0,0,0,0,0,0,0,0,0,0,0,0,0,0,0,0,0,0,0,0,0,0,0,0,0,0,0,0,0,0,0,0,0,0,0],"sum_hessian":[6.835E3,5.095E3,1.74E3,3.325E3,1.77E3,1.443E3,2.97E2,2.765E3,5.6E2,9.9E2,7.8E2,1.302E3,1.41E2,7.2E1,2.25E2,1.292E3,1.473E3,3.15E2,2.45E2,3E0,9.87E2,5.74E2,2.06E2,1.6E1,1.286E3,8.8E1,5.3E1,7E0,6.5E1,2.23E2,2E0,1E0,1.291E3,1.335E3,1.38E2,2E0,3.13E2,2.8E1,2.17E2,3.3E1,9.54E2,2.77E2,2.97E2,1E2,1.06E2,9E0,7E0,2.47E2,1.039E3,2.4E1,6.4E1,4.7E1,6E0,4E0,3E0,8E0,5.7E1],"tree_param":{"num_deleted":"0","num_feature":"15","num_nodes":"57","size_leaf_vector":"1"}},{"base_weights":[1.5717667E-2,-2.6517596E0,8.04158E0,-4.441283E0,6.815218E-1,5.9667687E0,1.0321125E1,-4.9231668E0,-2.275008E0,3.9605587E0,-4.678863E-1,6.440593E0,-2.9286866E0,1.2612398E1,5.700493E0,1.60853E1,-4.9598536E0,-8.67868E-1,-4.5167513E0,1.6942255E1,3.5801125E0,4.4602263E-1,-2.408308E0,2.2260996E1,6.2069197E0,-8.3892405E-1,-5.8541956E0,1.0618722E1,1.5250556E1,6.713997E-1,5.563886E0,8.823959E-1,2.4587071E-1,9.93757E-2,-2.5072315E-1,1.8274449E0,-5.82841E-2,-2.4626355E-1,-5.9360802E-2,-3.4989256E-1,9.7602093E-1,-2.7717993E-1,1.984747E-1,9.077004E-2,-7.263344E-3,5.2452356E-2,-1.6687538E-1,2.2122757E0,1.184907E-2,-9.06316E-2,3.5501894E-1,1.1061064E-1,-1.8153618E-1,-3.2452834E-1,-1.4834667E-2,-2.1771042E-2,5.400088E-1,4.7819248E-1,7.800595E-1,2.482597E-1,2.997446E-1],"categories":[],"categories_nodes":[],"categories_segments":[],"categories_sizes":[],"default_left":[0,0,0,0,0,0,0,0,0,0,0,0,0,0,0,0,0,0,0,0,0,0,0,0,0,0,0,0,0,0,0,0,0,0,0,0,0,0,0,0,0,0,0,0,0,0,0,0,0,0,0,0,0,0,0,0,0,0,0,0,0],"id":16,"left_children":[1,3,5,7,9,11,13,15,17,19,21,23,25,27,29,31,33,35,37,39,41,43,45,47,49,51,53,55,57,-1,59,-1,-1,-1,-1,-1,-1,-1,-1,-1,-1,-1,-1,-1,-1,-1,-1,-1,-1,-1,-1,-1,-1,-1,-1,-1,-1,-1,-1,-1,-1],"loss_changes":[1.4650038E5,3.0639195E4,8.0118906E3,3.4774844E3,6.7671216E3,3.7953926E3,8.524859E3,2.1862188E3,1.9202922E3,2.2408433E3,2.3596548E3,3.0078125E3,2.763153E2,2.6887734E3,2.1136328E2,4.736328E-1,1.0453281E3,4.2324614E3,3.137954E2,9.3898096E2,1.6348877E3,7.3304126E2,1.3720571E3,5.799763E3,6.031582E3,2.4654045E2,6.5270325E1,6.305156E2,3.1139453E2,0E0,3.938965E1,0E0,0E0,0E0,0E0,0E0,0E0,0E0,0E0,0E0,0E0,0E0,0E0,0E0,0E0,0E0,0E0,0E0,0E0,0E0,0E0,0E0,0E0,0E0,0E0,0E0,0E0,0E0,0E0,0E0,0E0],"parents":[2147483647,0,0,1,1,2,2,3,3,4,4,5,5,6,6,7,7,8,8,9,9,10,10,11,11,12,12,13,13,14,14,15,15,16,16,17,17,18,18,19,19,20,20,21,21,22,22,23,23,24,24,25,25,26,26,27,27,28,28,30,30],"right_children":[2,4,6,8,10,12,14,16,18,20,22,24,26,28,30,32,34,36,38,40,42,44,46,48,50,52,54,56,58,-1,60,-1,-1,-1,-1,-1,-1,-1,-1,-1,-1,-1,-1,-1,-1,-1,-1,-1,-1,-1,-1,-1,-1,-1,-1,-1,-1,-1,-1,-1,-1],"split_conditions":[2.32558E1,5.40541E0,4.48E3,2.43902E0,-8.63125E1,-7.7E1,1.1648E4,2.128E3,5.58286E1,3.136E3,-7.9E1,1.232E3,-7.5E1,4E1,-9.44815E1,-7.57647E1,-9.8E1,3.92E3,-6.6E1,-9.42258E1,-9.1E1,2.61053E1,5.20789E1,-9.2E1,2.73064E0,1.904E3,-7.8E1,2.36842E1,7.168E3,6.713997E-1,1.6E1,8.823959E-1,2.4587071E-1,9.93757E-2,-2.5072315E-1,1.8274449E0,-5.82841E-2,-2.4626355E-1,-5.9360802E-2,-3.4989256E-1,9.7602093E-1,-2.7717993E-1,1.984747E-1,9.077004E-2,-7.263344E-3,5.2452356E-2,-1.6687538E-1,2.2122757E0,1.184907E-2,-9.06316E-2,3.5501894E-1,1.1061064E-1,-1.8153618E-1,-3.2452834E-1,-1.4834667E-2,-2.1771042E-2,5.400088E-1,4.7819248E-1,7.800595E-1,2.482597E-1,2.997446E-1],"split_indices":[8,8,9,8,0,2,9,9,10,9,5,9,5,8,0,0,1,9,2,0,2,10,10,2,12,9,1,8,9,0,10,0,0,0,0,0,0,0,0,0,0,0,0,0,0,0,0,0,0,0,0,0,0,0,0,0,0,0,0,0,0],"split_type":[0,0,0,0,0,0,0,0,0,0,0,0,0,0,0,0,0,0,0,0,0,0,0,0,0,0,0,0,0,0,0,0,0,0,0,0,0,0,0,0,0,0,0,0,0,0,0,0,0,0,0,0,0,0,0,0,0,0,0,0,0],"sum_hessian":[6.841E3,5.135E3,1.706E3,3.341E3,1.794E3,8.95E2,8.11E2,2.732E3,6.09E2,4.65E2,1.329E3,8.5E2,4.5E1,5.41E2,2.7E2,4E0,2.728E3,3.75E2,2.34E2,1.2E1,4.53E2,9.04E2,4.25E2,1.1E1,8.39E2,2.7E1,1.8E1,3.11E2,2.3E2,3E0,2.67E2,3E0,1E0,2.1E1,2.707E3,2E0,3.73E2,2.08E2,2.6E1,1E0,1.1E1,1.8E1,4.35E2,2.72E2,6.32E2,9E1,3.35E2,5E0,6E0,8.4E1,7.55E2,1.3E1,1.4E1,1.6E1,2E0,5E0,3.06E2,1.5E1,2.15E2,1.17E2,1.5E2],"tree_param":{"num_deleted":"0","num_feature":"15","num_nodes":"61","size_leaf_vector":"1"}},{"base_weights":[7.6695934E-2,-2.5497642E0,7.48224E0,-4.617352E0,-1.027002E-1,5.5015244E0,9.620634E0,1.1931919E1,-4.652122E0,3.5288525E0,-1.0921565E0,2.5101736E1,5.2393193E0,7.705853E0,1.4291583E1,7.753345E-1,-1.4854825E-1,-3.5401568E0,-5.012572E0,1.4249743E0,3.1634357E0,-4.092892E0,-4.5356956E-1,-7.0321956E0,2.1023862E0,-2.4507241E0,5.9065666E0,5.4365897E0,1.014244E1,9.402758E0,7.362941E-1,6.579924E-1,-2.0106919E-1,-1.7020771E-2,-2.5656816E-1,-7.71557E-2,2.038149E-1,3.292092E-1,-2.1077402E-1,7.901345E-2,-5.5805095E-2,2.1704522E-1,-5.4803485E-1,-1.644062E-2,-5.7605726E-1,3.377693E-1,-3.5430577E-2,2.6351395E-1,8.587208E-1,6.968646E-1,4.8282868E-1,7.162847E-2,4.8499614E-1],"categories":[],"categories_nodes":[],"categories_segments":[],"categories_sizes":[],"default_left":[0,0,0,0,0,0,0,0,0,0,0,0,0,0,0,0,0,0,0,0,0,0,0,0,0,0,0,0,0,0,0,0,0,0,0,0,0,0,0,0,0,0,0,0,0,0,0,0,0,0,0,0,0],"id":17,"left_children":[1,3,5,7,9,11,13,15,17,19,21,23,25,27,29,-1,-1,31,33,-1,35,37,39,41,-1,43,45,47,49,51,-1,-1,-1,-1,-1,-1,-1,-1,-1,-1,-1,-1,-1,-1,-1,-1,-1,-1,-1,-1,-1,-1,-1],"loss_changes":[1.3261223E5,2.5464084E4,7.5075234E3,1.6252422E3,8.289917E3,4.642867E3,7.55475E3,3.657162E2,1.0736562E3,4.4174375E3,3.4722693E3,6.8301836E3,4.724881E3,3.317707E3,3.8808984E2,0E0,0E0,5.43737E3,1.13825E3,0E0,2.1029482E3,4.4398145E2,2.0175996E3,2.709755E2,0E0,1.4204624E3,4.749537E3,5.302627E2,4.0564453E2,4.0578613E1,0E0,0E0,0E0,0E0,0E0,0E0,0E0,0E0,0E0,0E0,0E0,0E0,0E0,0E0,0E0,0E0,0E0,0E0,0E0,0E0,0E0,0E0,0E0],"parents":[2147483647,0,0,1,1,2,2,3,3,4,4,5,5,6,6,7,7,8,8,9,9,10,10,11,11,12,12,13,13,14,14,17,17,18,18,20,20,21,21,22,22,23,23,25,25,26,26,27,27,28,28,29,29],"right_children":[2,4,6,8,10,12,14,16,18,20,22,24,26,28,30,-1,-1,32,34,-1,36,38,40,42,-1,44,46,48,50,52,-1,-1,-1,-1,-1,-1,-1,-1,-1,-1,-1,-1,-1,-1,-1,-1,-1,-1,-1,-1,-1,-1,-1],"split_conditions":[2.25E1,2.43902E0,4.48E3,2.128E3,-8.625E1,1.12E3,3.93939E1,2.71672E0,4.256E3,2.8E3,1.03093E1,4.95E1,8E0,2.65811E1,7.168E3,7.753345E-1,-1.4854825E-1,5.20789E1,4.93333E1,1.4249743E0,1.69181E0,-8.3E1,2.86522E1,1E0,2.1023862E0,1.65359E0,-8.5375E1,3.63636E1,3.15789E1,-1E1,7.362941E-1,6.579924E-1,-2.0106919E-1,-1.7020771E-2,-2.5656816E-1,-7.71557E-2,2.038149E-1,3.292092E-1,-2.1077402E-1,7.901345E-2,-5.5805095E-2,2.1704522E-1,-5.4803485E-1,-1.644062E-2,-5.7605726E-1,3.377693E-1,-3.5430577E-2,2.6351395E-1,8.587208E-1,6.968646E-1,4.8282868E-1,7.162847E-2,4.8499614E-1],"split_indices":[8,8,9,9,0,9,8,3,9,9,14,10,4,10,9,0,0,10,10,0,3,5,10,6,0,3,0,8,8,6,0,0,0,0,0,0,0,0,0,0,0,0,0,0,0,0,0,0,0,0,0,0,0],"split_type":[0,0,0,0,0,0,0,0,0,0,0,0,0,0,0,0,0,0,0,0,0,0,0,0,0,0,0,0,0,0,0,0,0,0,0,0,0,0,0,0,0,0,0,0,0,0,0,0,0,0,0,0,0],"sum_hessian":[6.816E3,5.032E3,1.784E3,2.727E3,2.305E3,9.28E2,8.56E2,5E0,2.722E3,4.93E2,1.812E3,1.1E1,9.17E2,6.09E2,2.47E2,4E0,1E0,6.69E2,2.053E3,6E0,4.87E2,3.17E2,1.495E3,4E0,7E0,7.3E1,8.44E2,3.17E2,2.92E2,2.2E1,2.25E2,1.8E1,6.51E2,5.1E1,2.002E3,7.9E1,4.08E2,3E0,3.14E2,3.67E2,1.128E3,1E0,3E0,6E1,1.3E1,7.48E2,9.6E1,3.14E2,3E0,3E1,2.62E2,1E0,2.1E1],"tree_param":{"num_deleted":"0","num_feature":"15","num_nodes":"53","size_leaf_vector":"1"}},{"base_weights":[7.2320793E-3,-4.2821984E0,2.770986E0,-5.077646E0,-3.5039096E0,5.9077935E0,-4.2889383E-1,1.1510868E0,-5.1301455E0,1.5782477E1,-3.543556E0,9.2616825E0,3.9106534E0,1.1133199E0,-2.425826E0,-4.179659E0,9.2682713E-1,2.6757352E0,-5.1616926E0,2.116191E-1,9.720667E-1,-4.295563E0,-2.7753024E0,4.251736E0,1.1646561E1,5.536302E0,-1.8532426E0,4.9646905E-1,5.4616756E0,-3.758454E0,-1.2402284E0,-3.6465693E-2,-2.4755405E-1,7.3696154E-1,-1.3424051E-1,-2.5916034E-1,-1.5408398E-1,1.5162955E-1,-2.2875988E-1,2.739883E-2,-1.7764655E-1,6.868441E-2,2.7263045E-1,5.113315E-1,7.110273E-1,1.242876E0,2.6717648E-1,-2.0255914E-1,9.300703E-2,-7.4154004E-2,4.0202003E-2,1.5132104E-1,2.8285864E-1,-5.3768452E-2,-2.0597616E-1,-7.935006E-2,4.8476793E-2],"categories":[],"categories_nodes":[],"categories_segments":[],"categories_sizes":[],"default_left":[0,0,0,0,0,0,0,0,0,0,0,0,0,0,0,0,0,0,0,0,0,0,0,0,0,0,0,0,0,0,0,0,0,0,0,0,0,0,0,0,0,0,0,0,0,0,0,0,0,0,0,0,0,0,0,0,0],"id":18,"left_children":[1,3,5,7,9,11,13,15,17,19,21,23,25,27,29,31,-1,33,35,-1,-1,37,39,41,43,45,47,49,51,53,55,-1,-1,-1,-1,-1,-1,-1,-1,-1,-1,-1,-1,-1,-1,-1,-1,-1,-1,-1,-1,-1,-1,-1,-1,-1,-1],"loss_changes":[8.198872E4,1.6599336E3,4.221986E4,4.434375E2,1.1057715E3,1.4190727E4,6.417708E3,1.1896057E3,3.4058984E2,4.4497253E1,7.801504E2,9.413391E3,1.2500566E4,3.1516577E3,1.4299429E3,2.3005829E1,0E0,4.2757355E2,4.31875E1,0E0,0E0,1.429874E3,1.7618394E3,8.807456E2,1.8135938E3,3.7407578E3,2.4071033E3,6.289187E2,5.2387695E1,4.0923877E2,3.708886E2,0E0,0E0,0E0,0E0,0E0,0E0,0E0,0E0,0E0,0E0,0E0,0E0,0E0,0E0,0E0,0E0,0E0,0E0,0E0,0E0,0E0,0E0,0E0,0E0,0E0,0E0],"parents":[2147483647,0,0,1,1,2,2,3,3,4,4,5,5,6,6,7,7,8,8,9,9,10,10,11,11,12,12,13,13,14,14,15,15,17,17,18,18,21,21,22,22,23,23,24,24,25,25,26,26,27,27,28,28,29,29,30,30],"right_children":[2,4,6,8,10,12,14,16,18,20,22,24,26,28,30,32,-1,34,36,-1,-1,38,40,42,44,46,48,50,52,54,56,-1,-1,-1,-1,-1,-1,-1,-1,-1,-1,-1,-1,-1,-1,-1,-1,-1,-1,-1,-1,-1,-1,-1,-1,-1,-1],"split_conditions":[1.21783E1,5.75107E0,-8.625E1,-9.5E1,1.12E3,3.956E1,-8.075E1,1.45581E0,2.128E3,-9.38056E1,-8.7E1,1.99503E1,3.92E3,1.1312E4,3.808E3,-9.6E1,9.2682713E-1,-1.73459E0,-7.4E1,2.116191E-1,9.720667E-1,4.368E3,5.39167E1,1.008E4,8.512E3,1.96001E0,3.02418E0,-1.17931E0,-1.34016E0,-1.83976E0,8.96E3,-3.6465693E-2,-2.4755405E-1,7.3696154E-1,-1.3424051E-1,-2.5916034E-1,-1.5408398E-1,1.5162955E-1,-2.2875988E-1,2.739883E-2,-1.7764655E-1,6.868441E-2,2.7263045E-1,5.113315E-1,7.110273E-1,1.242876E0,2.6717648E-1,-2.0255914E-1,9.300703E-2,-7.4154004E-2,4.0202003E-2,1.5132104E-1,2.8285864E-1,-5.3768452E-2,-2.0597616E-1,-7.935006E-2,4.8476793E-2],"split_indices":[11,11,0,5,9,10,0,3,9,0,1,11,9,9,9,5,0,7,1,0,0,9,10,9,9,12,12,7,7,7,9,0,0,0,0,0,0,0,0,0,0,0,0,0,0,0,0,0,0,0,0,0,0,0,0,0,0],"split_type":[0,0,0,0,0,0,0,0,0,0,0,0,0,0,0,0,0,0,0,0,0,0,0,0,0,0,0,0,0,0,0,0,0,0,0,0,0,0,0,0,0,0,0,0,0,0,0,0,0,0,0,0,0,0,0,0,0],"sum_hessian":[6.914E3,2.709E3,4.205E3,1.337E3,1.372E3,2.123E3,2.082E3,1.1E1,1.326E3,2E0,1.37E3,7.91E2,1.332E3,1.175E3,9.07E2,9E0,2E0,5E0,1.321E3,1E0,1E0,6.9E2,6.8E2,2.56E2,5.35E2,1.039E3,2.93E2,1.03E3,1.45E2,4.26E2,4.81E2,2E0,7E0,1E0,4E0,1.306E3,1.5E1,2.5E1,6.65E2,1.29E2,5.51E2,7.6E1,1.8E2,3.48E2,1.87E2,9E0,1.03E3,1.84E2,1.09E2,1.38E2,8.92E2,1.2E1,1.33E2,5.1E1,3.75E2,4.16E2,6.5E1],"tree_param":{"num_deleted":"0","num_feature":"15","num_nodes":"57","size_leaf_vector":"1"}},{"base_weights":[-6.0456112E-2,-2.4173882E0,6.575613E0,-4.2880406E0,-2.1424448E-1,4.839447E0,8.612149E0,2.8115577E-1,-4.3631625E0,1.6435342E0,-1.8190612E0,5.5787706E0,-9.189219E-1,4.7482243E0,1.0930287E1,1.7442673E1,-1.8185695E0,-3.3156905E0,-4.7092834E0,1.4550921E0,1.5135669E0,1.1786501E0,-2.497891E0,6.388933E0,-1.405603E0,1.4707024E0,-3.292137E0,4.9345512E0,-2.0316746E0,1.328094E1,9.257292E0,1.1610647E0,-1.4179547E-1,-1.7835008E-1,7.623089E-1,-1.9699106E-1,-9.214451E-2,-2.386436E-1,-9.828457E-3,-1.0791123E-1,1.0414618E-1,1.3116242E-1,2.9064601E-2,-9.338734E-2,-1.7235361E-1,1.4689142E0,3.1151623E-1,-6.492423E-1,7.3440365E-2,-8.585331E-2,1.512942E-1,1.7005461E-1,-2.0816731E-1,2.0256805E-1,2.7553254E-1,-1.1810388E-2,-1.7104034E-1,3.852629E-1,6.819034E-1,-3.6044982E-1,4.6678433E-1],"categories":[],"categories_nodes":[],"categories_segments":[],"categories_sizes":[],"default_left":[0,0,0,0,0,0,0,0,0,0,0,0,0,0,0,0,0,0,0,0,0,0,0,0,0,0,0,0,0,0,0,0,0,0,0,0,0,0,0,0,0,0,0,0,0,0,0,0,0,0,0,0,0,0,0,0,0,0,0,0,0],"id":19,"left_children":[1,3,5,7,9,11,13,15,17,19,21,23,25,27,29,31,33,35,37,-1,39,41,43,45,47,49,51,53,55,57,59,-1,-1,-1,-1,-1,-1,-1,-1,-1,-1,-1,-1,-1,-1,-1,-1,-1,-1,-1,-1,-1,-1,-1,-1,-1,-1,-1,-1,-1,-1],"loss_changes":[1.0676412E5,2.0758152E4,6.2838047E3,9.3623047E2,6.9019355E3,4.1261914E3,7.3108516E3,1.653272E3,9.5602344E2,3.785149E3,2.530334E3,4.863951E3,6.343329E2,4.0164258E2,1.8944922E3,6.5176465E2,1.2776819E3,6.0769727E2,5.7641797E2,0E0,2.2393037E3,1.9695187E2,5.994585E2,2.6209766E3,3.0145864E3,2.8281894E2,3.407074E2,1.313335E2,2.1639244E1,3.150664E2,4.5843555E2,0E0,0E0,0E0,0E0,0E0,0E0,0E0,0E0,0E0,0E0,0E0,0E0,0E0,0E0,0E0,0E0,0E0,0E0,0E0,0E0,0E0,0E0,0E0,0E0,0E0,0E0,0E0,0E0,0E0,0E0],"parents":[2147483647,0,0,1,1,2,2,3,3,4,4,5,5,6,6,7,7,8,8,9,9,10,10,11,11,12,12,13,13,14,14,15,15,16,16,17,17,18,18,20,20,21,21,22,22,23,23,24,24,25,25,26,26,27,27,28,28,29,29,30,30],"right_children":[2,4,6,8,10,12,14,16,18,20,22,24,26,28,30,32,34,36,38,-1,40,42,44,46,48,50,52,54,56,58,60,-1,-1,-1,-1,-1,-1,-1,-1,-1,-1,-1,-1,-1,-1,-1,-1,-1,-1,-1,-1,-1,-1,-1,-1,-1,-1,-1,-1,-1,-1],"split_conditions":[2.25E1,2.43902E0,2.66667E1,-9.5E1,-8.28182E1,-8.5375E1,1.94979E1,-1.42273E0,2E1,-3.91796E0,5.04737E1,2E1,-8.35326E1,2.19011E1,2.79429E1,-1E0,7.15782E-1,2.9724E0,2.06186E1,1.4550921E0,2.84057E0,1.3E1,6.10313E1,1.84773E0,-9.3875E1,-9.99057E-1,-3.43764E0,1.44181E1,1.80716E1,3.68421E1,7.90174E-1,1.1610647E0,-1.4179547E-1,-1.7835008E-1,7.623089E-1,-1.9699106E-1,-9.214451E-2,-2.386436E-1,-9.828457E-3,-1.0791123E-1,1.0414618E-1,1.3116242E-1,2.9064601E-2,-9.338734E-2,-1.7235361E-1,1.4689142E0,3.1151623E-1,-6.492423E-1,7.3440365E-2,-8.585331E-2,1.512942E-1,1.7005461E-1,-2.0816731E-1,2.0256805E-1,2.7553254E-1,-1.1810388E-2,-1.7104034E-1,3.852629E-1,6.819034E-1,-3.6044982E-1,4.6678433E-1],"split_indices":[8,8,14,5,0,0,11,7,14,7,10,14,0,10,10,6,7,12,14,0,12,4,10,12,0,7,7,11,11,8,3,0,0,0,0,0,0,0,0,0,0,0,0,0,0,0,0,0,0,0,0,0,0,0,0,0,0,0,0,0,0],"split_type":[0,0,0,0,0,0,0,0,0,0,0,0,0,0,0,0,0,0,0,0,0,0,0,0,0,0,0,0,0,0,0,0,0,0,0,0,0,0,0,0,0,0,0,0,0,0,0,0,0,0,0,0,0,0,0,0,0,0,0,0,0],"sum_hessian":[6.824E3,5.036E3,1.788E3,2.723E3,2.313E3,9.67E2,8.21E2,4.4E1,2.679E3,1.072E3,1.241E3,8.57E2,1.1E2,3.09E2,5.12E2,4E0,4E1,6.68E2,2.011E3,4E0,1.068E3,2.29E2,1.012E3,7.68E2,8.9E1,5.5E1,5.5E1,3.01E2,8E0,2.1E2,3.02E2,3E0,1E0,3.7E1,3E0,4.68E2,2E2,1.983E3,2.8E1,1.43E2,9.25E2,6.6E1,1.63E2,6.1E2,4.02E2,4E0,7.64E2,1.7E1,7.2E1,1.8E1,3.7E1,6E0,4.9E1,1.22E2,1.79E2,4E0,4E0,1.4E1,1.96E2,1E0,3.01E2],"tree_param":{"num_deleted":"0","num_feature":"15","num_nodes":"61","size_leaf_vector":"1"}},{"base_weights":[2.1646094E-2,-2.0671778E0,6.7251506E0,-3.6110673E0,6.2172043E-1,4.965161E0,8.542877E0,-4.624196E0,-2.9240847E0,4.168336E0,-1.1952289E-1,5.643689E0,-2.024756E0,4.4259257E0,1.0402066E1,7.234623E-1,-4.6493177E0,-3.8214512E0,-2.3031633E0,1.5665508E1,3.6457767E0,6.700707E-1,-2.034886E0,3.034569E1,5.4052944E0,-5.165555E0,6.148002E0,3.562527E0,4.9684024E0,8.862993E0,1.2466823E1,-2.346655E-1,-8.355436E-2,-2.1039319E-1,3.3450854E-1,-3.2881264E-2,-1.5812622E-1,9.021045E-1,-3.8075122E-1,-2.5272822E-1,2.1096916E-1,2.2509666E-2,3.3652633E-1,4.506596E-2,-1.3906969E-1,1.9743484E0,-6.125499E-1,3.010795E-1,-1.09119944E-1,7.583925E-2,-4.2744294E-1,-2.8907632E-2,4.1430303E-1,1.8246877E-1,5.9126493E-2,1.0174384E-1,2.559143E-1,6.344234E-1,4.1953015E-1,3.4887683E-1,6.354236E-1],"categories":[],"categories_nodes":[],"categories_segments":[],"categories_sizes":[],"default_left":[0,0,0,0,0,0,0,0,0,0,0,0,0,0,0,0,0,0,0,0,0,0,0,0,0,0,0,0,0,0,0,0,0,0,0,0,0,0,0,0,0,0,0,0,0,0,0,0,0,0,0,0,0,0,0,0,0,0,0,0,0],"id":20,"left_children":[1,3,5,7,9,11,13,15,17,19,21,23,25,27,29,-1,31,33,35,37,39,41,43,45,47,49,51,53,55,57,59,-1,-1,-1,-1,-1,-1,-1,-1,-1,-1,-1,-1,-1,-1,-1,-1,-1,-1,-1,-1,-1,-1,-1,-1,-1,-1,-1,-1,-1,-1],"loss_changes":[9.5776586E4,2.1651596E4,5.15625E3,2.292332E3,5.003305E3,3.9385117E3,6.062004E3,7.085781E2,1.0927695E3,1.9195044E3,2.383328E3,4.282035E3,1.9312634E3,9.9393555E1,1.634125E3,0E0,1.6719922E2,3.306044E3,1.6538447E3,9.119839E2,1.5983472E3,1.4841038E3,1.010781E3,3.2094731E3,3.515666E3,1.2338196E3,3.0678973E2,1.6354492E1,5.5977295E1,4.6819922E2,2.1907031E2,0E0,0E0,0E0,0E0,0E0,0E0,0E0,0E0,0E0,0E0,0E0,0E0,0E0,0E0,0E0,0E0,0E0,0E0,0E0,0E0,0E0,0E0,0E0,0E0,0E0,0E0,0E0,0E0,0E0,0E0],"parents":[2147483647,0,0,1,1,2,2,3,3,4,4,5,5,6,6,7,7,8,8,9,9,10,10,11,11,12,12,13,13,14,14,16,16,17,17,18,18,19,19,20,20,21,21,22,22,23,23,24,24,25,25,26,26,27,27,28,28,29,29,30,30],"right_children":[2,4,6,8,10,12,14,16,18,20,22,24,26,28,30,-1,32,34,36,38,40,42,44,46,48,50,52,54,56,58,60,-1,-1,-1,-1,-1,-1,-1,-1,-1,-1,-1,-1,-1,-1,-1,-1,-1,-1,-1,-1,-1,-1,-1,-1,-1,-1,-1,-1,-1,-1],"split_conditions":[2.4183E1,5.26316E0,4.48E3,5.75107E0,-8.2E1,2E1,1.90691E1,2.128E3,-8E1,3.136E3,-7.9E1,8.96E2,2.90208E0,1.45327E1,4E1,7.234623E-1,-7.4E1,2.63158E0,5.39167E1,2.06186E1,-9.1E1,1.0864E4,5.20789E1,-9.5E1,-7.8E1,-9.9414E-2,2.7027E1,1.6128E4,-1.34016E0,3.15789E1,6.048E3,-2.346655E-1,-8.355436E-2,-2.1039319E-1,3.3450854E-1,-3.2881264E-2,-1.5812622E-1,9.021045E-1,-3.8075122E-1,-2.5272822E-1,2.1096916E-1,2.2509666E-2,3.3652633E-1,4.506596E-2,-1.3906969E-1,1.9743484E0,-6.125499E-1,3.010795E-1,-1.09119944E-1,7.583925E-2,-4.2744294E-1,-2.8907632E-2,4.1430303E-1,1.8246877E-1,5.9126493E-2,1.0174384E-1,2.559143E-1,6.344234E-1,4.1953015E-1,3.4887683E-1,6.354236E-1],"split_indices":[8,8,9,11,2,14,11,9,2,9,5,9,12,11,8,0,1,8,10,14,2,9,10,1,2,7,8,9,7,8,9,0,0,0,0,0,0,0,0,0,0,0,0,0,0,0,0,0,0,0,0,0,0,0,0,0,0,0,0,0,0],"split_type":[0,0,0,0,0,0,0,0,0,0,0,0,0,0,0,0,0,0,0,0,0,0,0,0,0,0,0,0,0,0,0,0,0,0,0,0,0,0,0,0,0,0,0,0,0,0,0,0,0,0,0,0,0,0,0,0,0,0,0,0,0],"sum_hessian":[6.838E3,5.214E3,1.624E3,3.312E3,1.902E3,8.27E2,7.97E2,1.336E3,1.976E3,3.28E2,1.574E3,7.54E2,7.3E1,2.49E2,5.48E2,1E0,1.335E3,8.06E2,1.17E3,1.3E1,3.15E2,1.115E3,4.59E2,6E0,7.48E2,5.3E1,2E1,9.9E1,1.5E2,3.17E2,2.31E2,1.315E3,2E1,7.78E2,2.8E1,4.02E2,7.68E2,1.2E1,1E0,1.9E1,2.96E2,1.077E3,3.8E1,9.3E1,3.66E2,5E0,1E0,6.92E2,5.6E1,1.8E1,3.5E1,5E0,1.5E1,9.5E1,4E0,8E0,1.42E2,3.2E1,2.85E2,1.1E1,2.2E2],"tree_param":{"num_deleted":"0","num_feature":"15","num_nodes":"61","size_leaf_vector":"1"}},{"base_weights":[2.9137192E-2,-3.7595522E0,2.4561744E0,6.6914797E0,-3.8051493E0,5.1304274E0,-3.302151E-1,1.6189184E1,-2.4053354E0,-4.0573225E0,-2.4457617E0,3.5122225E0,7.840626E0,1.0115598E0,-2.0821505E0,1.0996059E0,3.8948447E-1,-5.157607E0,9.482702E-1,-3.0712914E0,-4.377018E0,6.962151E0,-2.668714E0,5.303744E0,-5.272252E-1,3.1731527E0,9.95564E0,5.2767986E-1,4.8120847E0,-2.7436993E0,-7.062488E-1,-3.0855983E-1,-5.2920997E-2,3.2264027E-1,-1.5187551E-1,1.2160226E0,-1.6573617E-1,-1.7926896E-1,-2.2760956E-1,1.0327932E0,-9.2871E-2,-2.0918755E-1,-5.5544425E-2,1.4304899E0,2.534865E-1,1.3580108E-1,-1.8299267E-1,3.4010466E-2,2.2040437E-1,6.2249917E-1,4.4148207E-1,1.2620594E-1,4.836528E-3,1.1498337E-1,2.5003585E-1,3.505312E-3,-1.5082316E-1,7.4504875E-2,-5.6321055E-2],"categories":[],"categories_nodes":[],"categories_segments":[],"categories_sizes":[],"default_left":[0,0,0,0,0,0,0,0,0,0,0,0,0,0,0,0,0,0,0,0,0,0,0,0,0,0,0,0,0,0,0,0,0,0,0,0,0,0,0,0,0,0,0,0,0,0,0,0,0,0,0,0,0,0,0,0,0,0,0],"id":21,"left_children":[1,3,5,7,9,11,13,15,17,19,21,23,25,27,29,-1,-1,31,33,35,37,39,41,43,45,47,49,51,53,55,57,-1,-1,-1,-1,-1,-1,-1,-1,-1,-1,-1,-1,-1,-1,-1,-1,-1,-1,-1,-1,-1,-1,-1,-1,-1,-1,-1,-1],"loss_changes":[6.3088926E4,1.3021055E3,3.1163914E4,1.0757268E3,9.046719E2,9.331453E3,4.8186963E3,1.2113855E2,6.950104E1,6.955078E2,8.9953613E2,9.685574E3,7.836207E3,2.132537E3,8.072534E2,0E0,0E0,1.0087845E1,1.0735994E2,3.7746978E3,2.1886914E2,1.2460931E3,9.6537964E2,4.910748E3,4.195813E3,7.6665674E2,1.4291992E3,8.86791E2,5.058374E1,4.6071436E2,2.6930316E2,0E0,0E0,0E0,0E0,0E0,0E0,0E0,0E0,0E0,0E0,0E0,0E0,0E0,0E0,0E0,0E0,0E0,0E0,0E0,0E0,0E0,0E0,0E0,0E0,0E0,0E0,0E0,0E0],"parents":[2147483647,0,0,1,1,2,2,3,3,4,4,5,5,6,6,7,7,8,8,9,9,10,10,11,11,12,12,13,13,14,14,17,17,18,18,19,19,20,20,21,21,22,22,23,23,24,24,25,25,26,26,27,27,28,28,29,29,30,30],"right_children":[2,4,6,8,10,12,14,16,18,20,22,24,26,28,30,-1,-1,32,34,36,38,40,42,44,46,48,50,52,54,56,58,-1,-1,-1,-1,-1,-1,-1,-1,-1,-1,-1,-1,-1,-1,-1,-1,-1,-1,-1,-1,-1,-1,-1,-1,-1,-1,-1,-1],"split_conditions":[1.21783E1,2.128E3,-8.61724E1,2E0,8.82647E0,5.376E3,-8.075E1,-1.73459E0,5E0,4.368E3,-9.8E1,1.96078E1,1.92675E1,1.1312E4,2E1,1.0996059E0,3.8948447E-1,-7.655E1,-9.125E1,-9.2E1,-8.8E1,8E0,-9.1E1,-9.2E1,1.50083E-4,1.0416E4,2.53205E1,1.81818E1,-1.30219E0,-1.78188E0,2.4E1,-3.0855983E-1,-5.2920997E-2,3.2264027E-1,-1.5187551E-1,1.2160226E0,-1.6573617E-1,-1.7926896E-1,-2.2760956E-1,1.0327932E0,-9.2871E-2,-2.0918755E-1,-5.5544425E-2,1.4304899E0,2.534865E-1,1.3580108E-1,-1.8299267E-1,3.4010466E-2,2.2040437E-1,6.2249917E-1,4.4148207E-1,1.2620594E-1,4.836528E-3,1.1498337E-1,2.5003585E-1,3.505312E-3,-1.5082316E-1,7.4504875E-2,-5.6321055E-2],"split_indices":[11,9,0,6,11,9,0,7,6,9,1,14,11,9,14,0,0,0,0,5,2,4,1,2,7,9,10,14,7,7,10,0,0,0,0,0,0,0,0,0,0,0,0,0,0,0,0,0,0,0,0,0,0,0,0,0,0,0,0],"split_type":[0,0,0,0,0,0,0,0,0,0,0,0,0,0,0,0,0,0,0,0,0,0,0,0,0,0,0,0,0,0,0,0,0,0,0,0,0,0,0,0,0,0,0,0,0,0,0,0,0,0,0,0,0,0,0,0,0,0,0],"sum_hessian":[6.859E3,2.678E3,4.181E3,1.1E1,2.667E3,2.133E3,2.048E3,5E0,6E0,2.248E3,4.19E2,1.337E3,7.96E2,1.16E3,8.88E2,2E0,3E0,3E0,3E0,5.53E2,1.695E3,9E0,4.1E2,9.26E2,4.11E2,2.49E2,5.47E2,1.03E3,1.3E2,5.99E2,2.89E2,2E0,1E0,1E0,2E0,4E0,5.49E2,3.11E2,1.384E3,3E0,6E0,2.07E2,2.03E2,8E0,9.18E2,2.02E2,2.09E2,8.3E1,1.66E2,1.67E2,3.8E2,1.82E2,8.48E2,1E1,1.2E2,5.3E1,5.46E2,4.6E1,2.43E2],"tree_param":{"num_deleted":"0","num_feature":"15","num_nodes":"59","size_leaf_vector":"1"}},{"base_weights":[1.4228163E-3,-1.9563639E0,5.8303905E0,-3.279306E0,3.9245215E-1,5.0656424E0,9.462626E0,-3.5996988E0,-1.7256666E0,1.7113044E0,-1.2707183E0,-4.4606295E0,5.3728337E0,3.5037632E0,1.1415538E1,7.2615635E-1,-3.6317954E0,-3.3424706E0,-7.5894004E-1,1.3438553E1,1.5481846E0,-2.0918484E0,1.3415958E0,-4.222612E-1,-1.2509215E1,5.9834757E0,2.1286626E0,2.3483252E1,4.234805E-1,1.1439394E1,1.5238933E-1,-1.1110014E-1,-1.9212954E-1,-1.728022E-1,5.098591E-1,7.1054345E-1,-4.639276E-2,-5.1557106E-1,9.1280836E-1,-2.9797778E-1,9.1886066E-2,5.1281756E-1,-1.0741118E-1,1.7161123E-1,3.8322363E-2,-4.6433988E-1,6.2830406E-1,2.5823426E-1,-7.0702714E-1,3.7255728E-1,2.746221E-1,-5.6890946E-2,1.9130346E-1,1.8324803E0,1.4934894E-1,9.292955E-1,-5.240309E-2,3.1547916E-1,5.752139E-1],"categories":[],"categories_nodes":[],"categories_segments":[],"categories_sizes":[],"default_left":[0,0,0,0,0,0,0,0,0,0,0,0,0,0,0,0,0,0,0,0,0,0,0,0,0,0,0,0,0,0,0,0,0,0,0,0,0,0,0,0,0,0,0,0,0,0,0,0,0,0,0,0,0,0,0,0,0,0,0],"id":22,"left_children":[1,3,5,7,9,11,13,15,17,19,21,23,25,27,29,-1,31,33,35,37,39,41,43,45,47,49,51,53,55,57,-1,-1,-1,-1,-1,-1,-1,-1,-1,-1,-1,-1,-1,-1,-1,-1,-1,-1,-1,-1,-1,-1,-1,-1,-1,-1,-1,-1,-1],"loss_changes":[7.806864E4,1.5914016E4,4.729785E3,1.6244961E3,4.051332E3,4.188215E3,3.4278691E3,1.6320195E3,8.758734E2,1.9495286E3,1.7553118E3,1.4573596E3,2.7190977E3,4.6057407E3,9.8515625E0,0E0,7.971094E2,3.581682E2,9.0579114E2,1.7901018E3,2.2216724E3,4.5502856E2,2.3304407E2,3.685903E3,5.0551025E2,7.950586E2,1.2241538E3,2.5891396E3,1.7834468E3,1.6347656E0,0E0,0E0,0E0,0E0,0E0,0E0,0E0,0E0,0E0,0E0,0E0,0E0,0E0,0E0,0E0,0E0,0E0,0E0,0E0,0E0,0E0,0E0,0E0,0E0,0E0,0E0,0E0,0E0,0E0],"parents":[2147483647,0,0,1,1,2,2,3,3,4,4,5,5,6,6,7,7,8,8,9,9,10,10,11,11,12,12,13,13,14,14,16,16,17,17,18,18,19,19,20,20,21,21,22,22,23,23,24,24,25,25,26,26,27,27,28,28,29,29],"right_children":[2,4,6,8,10,12,14,16,18,20,22,24,26,28,30,-1,32,34,36,38,40,42,44,46,48,50,52,54,56,58,-1,-1,-1,-1,-1,-1,-1,-1,-1,-1,-1,-1,-1,-1,-1,-1,-1,-1,-1,-1,-1,-1,-1,-1,-1,-1,-1,-1,-1],"split_conditions":[2.32558E1,5.26316E0,4.28571E1,2.43902E0,-8.2697E1,2.06675E0,5.936E3,2.128E3,1.81818E1,3.136E3,7.392E3,-8.9E1,-8.57714E1,-9.2E1,-9.0225E1,7.2615635E-1,-9.26053E1,-6.7E1,4.032E3,-9.42258E1,1.69181E0,-1.1E1,1.31313E1,-9.1E1,-9.43281E1,-9.2027E1,1.81818E1,8.96E2,1.84773E0,6.048E3,1.5238933E-1,-1.1110014E-1,-1.9212954E-1,-1.728022E-1,5.098591E-1,7.1054345E-1,-4.639276E-2,-5.1557106E-1,9.1280836E-1,-2.9797778E-1,9.1886066E-2,5.1281756E-1,-1.0741118E-1,1.7161123E-1,3.8322363E-2,-4.6433988E-1,6.2830406E-1,2.5823426E-1,-7.0702714E-1,3.7255728E-1,2.746221E-1,-5.6890946E-2,1.9130346E-1,1.8324803E0,1.4934894E-1,9.292955E-1,-5.240309E-2,3.1547916E-1,5.752139E-1],"split_indices":[8,8,8,8,0,3,9,9,14,9,9,2,0,2,0,0,0,5,9,0,3,6,8,2,0,0,14,9,12,9,0,0,0,0,0,0,0,0,0,0,0,0,0,0,0,0,0,0,0,0,0,0,0,0,0,0,0,0,0],"split_type":[0,0,0,0,0,0,0,0,0,0,0,0,0,0,0,0,0,0,0,0,0,0,0,0,0,0,0,0,0,0,0,0,0,0,0,0,0,0,0,0,0,0,0,0,0,0,0,0,0,0,0,0,0,0,0,0,0,0,0],"sum_hessian":[6.839E3,5.12E3,1.719E3,3.275E3,1.845E3,1.422E3,2.97E2,2.714E3,5.61E2,1.029E3,8.16E2,4.4E1,1.378E3,7.4E1,2.23E2,4E0,2.71E3,2.09E2,3.52E2,1.3E1,1.016E3,6.21E2,1.95E2,3E1,1.4E1,1.159E3,2.19E2,9E0,6.5E1,2.22E2,1E0,3.54E2,2.356E3,2.08E2,1E0,3E0,3.49E2,2E0,1.1E1,3.7E1,9.79E2,2E0,6.19E2,4.1E1,1.54E2,1.8E1,1.2E1,1E0,1.3E1,2.87E2,8.72E2,7.5E1,1.44E2,5E0,4E0,4E0,6.1E1,4E0,2.18E2],"tree_param":{"num_deleted":"0","num_feature":"15","num_nodes":"59","size_leaf_vector":"1"}},{"base_weights":[1.1563509E-2,-1.9284856E0,5.548059E0,-3.1295776E0,3.036704E-1,4.1084023E0,7.1747785E0,-3.9410145E0,-2.585285E0,1.6392938E0,-1.3624693E0,4.684174E0,-1.1410321E0,3.8703837E0,9.003386E0,6.560404E0,-3.961723E0,-2.4370685E0,-5.621399E0,1.2358266E0,1.5444924E0,-2.1546535E0,1.0941951E0,1.6426678E0,4.54707E0,7.086415E-1,-3.0451381E0,-2.1674926E0,4.0639057E0,7.662518E0,1.0660033E1,-1.677014E-1,6.597317E-1,-1.1951031E-1,-2.0288217E-1,6.0710967E-1,-1.2409482E-1,-9.083368E-2,-3.006036E-1,2.8892903E-2,1.6260195E-1,-9.398114E-2,-2.110982E-1,1.0649812E-1,2.3631246E-3,2.5867397E-1,-5.246372E-2,-1.2480026E-1,1.1690231E-1,1.6973108E-1,-2.0351689E-1,2.7043137E-1,-1.8051212E-1,1.5927546E-1,2.2524063E-1,4.7521278E-1,3.3856812E-1,2.7056286E-1,5.5836153E-1],"categories":[],"categories_nodes":[],"categories_segments":[],"categories_sizes":[],"default_left":[0,0,0,0,0,0,0,0,0,0,0,0,0,0,0,0,0,0,0,0,0,0,0,0,0,0,0,0,0,0,0,0,0,0,0,0,0,0,0,0,0,0,0,0,0,0,0,0,0,0,0,0,0,0,0,0,0,0,0],"id":23,"left_children":[1,3,5,7,9,11,13,15,17,19,21,23,25,27,29,31,33,35,37,-1,39,41,43,-1,45,47,49,51,53,55,57,-1,-1,-1,-1,-1,-1,-1,-1,-1,-1,-1,-1,-1,-1,-1,-1,-1,-1,-1,-1,-1,-1,-1,-1,-1,-1,-1,-1],"loss_changes":[7.4177805E4,1.3711711E4,4.1672383E3,1.4583262E3,3.9855833E3,2.8857637E3,5.0408086E3,3.158789E2,8.831543E2,2.1364548E3,1.5534241E3,3.1681602E3,3.3674548E2,3.6051562E2,1.1178438E3,2.4157901E2,1.909375E2,1.2732012E3,1.2582715E2,0E0,1.6338389E3,3.3491406E2,2.1135316E2,0E0,3.0062227E3,2.616974E2,3.2411307E2,1.288309E2,9.873877E1,4.313086E2,5.758281E2,0E0,0E0,0E0,0E0,0E0,0E0,0E0,0E0,0E0,0E0,0E0,0E0,0E0,0E0,0E0,0E0,0E0,0E0,0E0,0E0,0E0,0E0,0E0,0E0,0E0,0E0,0E0,0E0],"parents":[2147483647,0,0,1,1,2,2,3,3,4,4,5,5,6,6,7,7,8,8,9,9,10,10,11,11,12,12,13,13,14,14,15,15,16,16,17,17,18,18,20,20,21,21,22,22,24,24,25,25,26,26,27,27,28,28,29,29,30,30],"right_children":[2,4,6,8,10,12,14,16,18,20,22,24,26,28,30,32,34,36,38,-1,40,42,44,-1,46,48,50,52,54,56,58,-1,-1,-1,-1,-1,-1,-1,-1,-1,-1,-1,-1,-1,-1,-1,-1,-1,-1,-1,-1,-1,-1,-1,-1,-1,-1,-1,-1],"split_conditions":[2.25E1,5.26316E0,4.032E3,5.75107E0,-8.2697E1,-8.52812E1,1.94979E1,2.128E3,3.10361E0,-4.90148E0,4.368E3,6.53595E0,-8.325E1,9.408E3,3.93939E1,-7.655E1,4.368E3,-3.12775E0,1.01523E1,1.2358266E0,2.6278E1,-7.2E1,-8.09706E1,1.6426678E0,2E1,-9.28031E-1,-3.43764E0,1.82192E0,1.43244E1,3.36957E1,6.832E3,-1.677014E-1,6.597317E-1,-1.1951031E-1,-2.0288217E-1,6.0710967E-1,-1.2409482E-1,-9.083368E-2,-3.006036E-1,2.8892903E-2,1.6260195E-1,-9.398114E-2,-2.110982E-1,1.0649812E-1,2.3631246E-3,2.5867397E-1,-5.246372E-2,-1.2480026E-1,1.1690231E-1,1.6973108E-1,-2.0351689E-1,2.7043137E-1,-1.8051212E-1,1.5927546E-1,2.2524063E-1,4.7521278E-1,3.3856812E-1,2.7056286E-1,5.5836153E-1],"split_indices":[8,8,9,11,0,0,11,9,3,7,9,14,0,9,8,0,9,7,14,0,11,5,0,0,14,7,7,3,11,8,9,0,0,0,0,0,0,0,0,0,0,0,0,0,0,0,0,0,0,0,0,0,0,0,0,0,0,0,0],"split_type":[0,0,0,0,0,0,0,0,0,0,0,0,0,0,0,0,0,0,0,0,0,0,0,0,0,0,0,0,0,0,0,0,0,0,0,0,0,0,0,0,0,0,0,0,0,0,0,0,0,0,0,0,0,0,0,0,0,0,0],"sum_hessian":[6.904E3,5.113E3,1.791E3,3.324E3,1.789E3,9.52E2,8.39E2,1.332E3,1.992E3,9.93E2,7.96E2,8.58E2,9.4E1,3E2,5.39E2,2E0,1.33E3,1.901E3,9.1E1,3E0,9.9E2,6.02E2,1.94E2,3E0,8.55E2,4.8E1,4.6E1,9E0,2.91E2,3.01E2,2.38E2,1E0,1E0,7.8E1,1.252E3,5E0,1.896E3,9E0,8.2E1,6.33E2,3.57E2,5.33E2,6.9E1,9.7E1,9.7E1,7.69E2,8.6E1,1.6E1,3.2E1,6E0,4E1,1E0,8E0,1E2,1.91E2,9.5E1,2.06E2,2.2E1,2.16E2],"tree_param":{"num_deleted":"0","num_feature":"15","num_nodes":"59","size_leaf_vector":"1"}},{"base_weights":[3.296868E-2,-1.7548356E0,5.3932314E0,-2.9906862E0,4.9275798E-1,6.410963E0,3.3625567E0,-3.3027742E0,-1.4856771E0,2.5211127E0,-3.2520398E-1,5.482286E0,9.284488E0,-4.7363596E0,3.94557E0,1.3884712E1,-3.3329327E0,-3.2988346E-1,-2.7729514E0,1.9973938E1,2.3144882E0,-9.800866E-1,1.0541078E0,1.9569475E1,5.3443866E0,-5.005499E-1,9.675989E0,1.2784924E1,-8.309469E0,4.4765353E0,-2.9356167E0,7.63359E-1,2.0887104E-1,-1.6104417E-1,-3.1927034E-1,-3.9723482E-2,6.65774E-1,-1.4288206E-1,5.00215E-1,1.7663812E-2,1.1913708E0,-2.1370848E-1,1.356576E-1,-1.5493192E-1,-2.5851829E-2,4.4036582E-2,4.0285608E-1,1.6531162E0,2.4306493E-1,-4.476029E-1,2.7790037E-1,1.5810677E0,4.656847E-1,-2.7190724E-1,1.390588E0,1.4746234E-2,-5.31869E-1,2.732024E-1,1.7172378E-1,-4.87373E-2,-2.7079383E-1],"categories":[],"categories_nodes":[],"categories_segments":[],"categories_sizes":[],"default_left":[0,0,0,0,0,0,0,0,0,0,0,0,0,0,0,0,0,0,0,0,0,0,0,0,0,0,0,0,0,0,0,0,0,0,0,0,0,0,0,0,0,0,0,0,0,0,0,0,0,0,0,0,0,0,0,0,0,0,0,0,0],"id":24,"left_children":[1,3,5,7,9,11,13,15,17,19,21,23,25,27,29,31,33,35,37,39,41,43,45,47,49,-1,51,53,55,57,59,-1,-1,-1,-1,-1,-1,-1,-1,-1,-1,-1,-1,-1,-1,-1,-1,-1,-1,-1,-1,-1,-1,-1,-1,-1,-1,-1,-1,-1,-1],"loss_changes":[6.563454E4,1.4267686E4,3.5186719E3,1.5516641E3,3.02539E3,2.9912773E3,2.7289873E3,1.4686328E3,8.4863245E2,1.8434087E3,1.1753066E3,1.573832E3,2.1893848E3,2.547849E3,1.9715088E3,3.3226929E0,9.165879E2,1.9250916E3,3.2075635E2,4.45229E2,1.3748328E3,8.6363586E2,5.0163516E2,1.426916E3,2.6670469E3,0E0,1.8680801E3,2.0680898E3,6.64136E2,4.9369922E2,1.8439621E2,0E0,0E0,0E0,0E0,0E0,0E0,0E0,0E0,0E0,0E0,0E0,0E0,0E0,0E0,0E0,0E0,0E0,0E0,0E0,0E0,0E0,0E0,0E0,0E0,0E0,0E0,0E0,0E0,0E0,0E0],"parents":[2147483647,0,0,1,1,2,2,3,3,4,4,5,5,6,6,7,7,8,8,9,9,10,10,11,11,12,12,13,13,14,14,15,15,16,16,17,17,18,18,19,19,20,20,21,21,22,22,23,23,24,24,26,26,27,27,28,28,29,29,30,30],"right_children":[2,4,6,8,10,12,14,16,18,20,22,24,26,28,30,32,34,36,38,40,42,44,46,48,50,-1,52,54,56,58,60,-1,-1,-1,-1,-1,-1,-1,-1,-1,-1,-1,-1,-1,-1,-1,-1,-1,-1,-1,-1,-1,-1,-1,-1,-1,-1,-1,-1,-1,-1],"split_conditions":[2.32558E1,5.26316E0,-9.6E1,2.43902E0,-8E1,4.21875E1,2.19625E0,2.128E3,5.34722E1,-3.12775E0,2.10526E1,2.464E3,1.85893E1,1.84773E0,-8.6E1,-7.9E1,1.74482E1,2.06175E1,-6.6E1,-9.5E1,-9E1,1.77618E1,1.1312E4,-9.1E1,-9.1E1,-5.005499E-1,6.53595E0,4.95E1,4.99231E1,-8E1,-8.1E1,7.63359E-1,2.0887104E-1,-1.6104417E-1,-3.1927034E-1,-3.9723482E-2,6.65774E-1,-1.4288206E-1,5.00215E-1,1.7663812E-2,1.1913708E0,-2.1370848E-1,1.356576E-1,-1.5493192E-1,-2.5851829E-2,4.4036582E-2,4.0285608E-1,1.6531162E0,2.4306493E-1,-4.476029E-1,2.7790037E-1,1.5810677E0,4.656847E-1,-2.7190724E-1,1.390588E0,1.4746234E-2,-5.31869E-1,2.732024E-1,1.7172378E-1,-4.87373E-2,-2.7079383E-1],"split_indices":[8,8,1,8,2,8,3,9,10,7,14,9,11,12,1,1,11,11,5,5,2,11,9,2,2,0,14,10,10,2,1,0,0,0,0,0,0,0,0,0,0,0,0,0,0,0,0,0,0,0,0,0,0,0,0,0,0,0,0,0,0],"split_type":[0,0,0,0,0,0,0,0,0,0,0,0,0,0,0,0,0,0,0,0,0,0,0,0,0,0,0,0,0,0,0,0,0,0,0,0,0,0,0,0,0,0,0,0,0,0,0,0,0,0,0,0,0,0,0,0,0,0,0,0,0],"sum_hessian":[6.847E3,5.135E3,1.712E3,3.313E3,1.822E3,1.139E3,5.73E2,2.743E3,5.7E2,5.23E2,1.299E3,8.63E2,2.76E2,3.8E1,5.35E2,4E0,2.739E3,3.01E2,2.69E2,5E0,5.18E2,8.81E2,4.18E2,7E0,8.56E2,5E0,2.71E2,6E0,3.2E1,4.97E2,3.8E1,3E0,1E0,2.644E3,9.5E1,2.92E2,9E0,2.68E2,1E0,1E0,4E0,2.9E1,4.89E2,1.57E2,7.24E2,4.09E2,9E0,3E0,4E0,1.2E1,8.44E2,3E0,2.68E2,3E0,3E0,7E0,2.5E1,2.53E2,2.44E2,2.2E1,1.6E1],"tree_param":{"num_deleted":"0","num_feature":"15","num_nodes":"61","size_leaf_vector":"1"}},{"base_weights":[-6.790266E-2,-3.0308812E0,1.8643669E0,9.410686E0,-3.0805016E0,3.630308E0,-6.090284E-1,1.1719347E0,1.2203454E0,4.813486E0,-3.1353374E0,-1.038816E0,4.1826324E0,-2.8181553E0,-5.8698058E-2,3.3499283E-1,-1.7228009E0,1.2674593E1,-2.6646832E-1,-2.243085E0,-3.4401283E0,8.323113E0,-3.6290598E0,1.8521321E0,4.9863005E0,-3.4069734E0,-6.1576766E-1,3.2397985E0,-2.578743E-1,3.1682727E-1,-2.3009896E-1,1.2298285E0,2.564641E-1,1.3488668E0,-1.1626227E-1,-1.8484157E-1,-1.1661142E-1,6.640579E-1,-1.0155167E-1,1.2509307E0,-2.0203148E-1,1.8597457E-1,-4.5069237E-3,1.7351855E-1,4.0607354E-1,-1.7457661E-1,4.877096E-1,1.7621522E-1,-7.7792674E-2,1.4600031E-1,3.6943635E-1,4.0307347E-2,-4.1800316E-2],"categories":[],"categories_nodes":[],"categories_segments":[],"categories_sizes":[],"default_left":[0,0,0,0,0,0,0,0,0,0,0,0,0,0,0,0,0,0,0,0,0,0,0,0,0,0,0,0,0,0,0,0,0,0,0,0,0,0,0,0,0,0,0,0,0,0,0,0,0,0,0,0,0],"id":25,"left_children":[1,3,5,7,9,11,13,-1,15,17,19,21,23,25,27,-1,29,31,-1,33,35,37,39,41,43,45,47,49,51,-1,-1,-1,-1,-1,-1,-1,-1,-1,-1,-1,-1,-1,-1,-1,-1,-1,-1,-1,-1,-1,-1,-1,-1],"loss_changes":[3.9263844E4,1.7001738E3,1.813324E4,1.2352327E3,1.1825508E3,6.250371E3,2.103081E3,0E0,1.4055853E2,1.5824945E3,7.2083984E2,6.2623726E3,4.0475742E3,4.453003E2,9.114128E2,0E0,1.6838643E2,8.633424E2,0E0,1.7072522E3,5.587578E2,2.9018083E3,2.4827751E3,2.020528E3,7.6236562E3,3.367627E2,2.93493E2,8.324182E1,8.0528314E2,0E0,0E0,0E0,0E0,0E0,0E0,0E0,0E0,0E0,0E0,0E0,0E0,0E0,0E0,0E0,0E0,0E0,0E0,0E0,0E0,0E0,0E0,0E0,0E0],"parents":[2147483647,0,0,1,1,2,2,3,3,4,4,5,5,6,6,8,8,9,9,10,10,11,11,12,12,13,13,14,14,16,16,17,17,19,19,20,20,21,21,22,22,23,23,24,24,25,25,26,26,27,27,28,28],"right_children":[2,4,6,8,10,12,14,-1,16,18,20,22,24,26,28,-1,30,32,-1,34,36,38,40,42,44,46,48,50,52,-1,-1,-1,-1,-1,-1,-1,-1,-1,-1,-1,-1,-1,-1,-1,-1,-1,-1,-1,-1,-1,-1,-1,-1],"split_conditions":[1.21783E1,2.128E3,-9.2E1,-1.73459E0,-9.8E1,2.06675E0,1.03093E1,1.1719347E0,-2E0,2.40815E0,4.368E3,-5.98737E-1,2.06175E1,1.2E1,2.2407E1,3.3499283E-1,1.62481E0,4.95897E1,-2.6646832E-1,-3.91796E0,8.09875E0,4.144E3,-9.3E1,2.28276E1,2.1978E1,-6.6E1,2.8037E0,9.52381E1,-7.7E1,3.1682727E-1,-2.3009896E-1,1.2298285E0,2.564641E-1,1.3488668E0,-1.1626227E-1,-1.8484157E-1,-1.1661142E-1,6.640579E-1,-1.0155167E-1,1.2509307E0,-2.0203148E-1,1.8597457E-1,-4.5069237E-3,1.7351855E-1,4.0607354E-1,-1.7457661E-1,4.877096E-1,1.7621522E-1,-7.7792674E-2,1.4600031E-1,3.6943635E-1,4.0307347E-2,-4.1800316E-2],"split_indices":[11,9,1,7,1,3,14,0,6,12,9,7,11,4,10,0,3,10,0,7,11,9,2,10,14,5,12,14,2,0,0,0,0,0,0,0,0,0,0,0,0,0,0,0,0,0,0,0,0,0,0,0,0],"split_type":[0,0,0,0,0,0,0,0,0,0,0,0,0,0,0,0,0,0,0,0,0,0,0,0,0,0,0,0,0,0,0,0,0,0,0,0,0,0,0,0,0,0,0,0,0,0,0,0,0,0,0,0,0],"sum_hessian":[6.856E3,2.706E3,4.15E3,1E1,2.696E3,2.421E3,1.729E3,3E0,7E0,1.8E1,2.678E3,2.56E2,2.165E3,3.44E2,1.385E3,2E0,5E0,1E1,8E0,6.84E2,1.994E3,5.5E1,2.01E2,5.56E2,1.609E3,2.71E2,7.3E1,7.8E1,1.307E3,1E0,4E0,3E0,7E0,1E0,6.83E2,1.617E3,3.77E2,3.7E1,1.8E1,2E0,1.99E2,2.83E2,2.73E2,1.086E3,5.23E2,2.7E2,1E0,1.3E1,6E1,7.4E1,4E0,4.6E2,8.47E2],"tree_param":{"num_deleted":"0","num_feature":"15","num_nodes":"53","size_leaf_vector":"1"}},{"base_weights":[7.6183066E-2,-1.5678027E0,4.980442E0,-2.929333E0,2.1500919E-2,4.3872356E0,7.759091E0,2.3510063E0,-2.989954E0,1.3895568E0,-1.2979157E0,-7.2471557E0,4.516329E0,8.344963E0,-7.0948987E0,1.8801536E-1,6.46326E0,-2.7986484E0,-4.095135E0,1.2912664E0,1.3043181E0,7.747937E-1,-1.8749741E0,-1.9555746E0,-7.863412E0,5.0827336E0,2.0655134E0,2.9673529E1,7.5590386E0,1.9303364E-1,-9.67208E0,-1.748275E-1,1.2716174E-1,8.4629196E-1,-9.6666686E-2,-1.5321042E-1,-7.0017986E-2,-2.4597616E-1,-1.7411216E-1,1.4916363E-1,3.234121E-2,9.223189E-2,-6.712074E-4,-8.4947914E-2,-1.9059668E-1,2.4820685E-2,-1.7148879E-1,-1.8911313E-1,-4.5588228E-1,1.1563425E0,2.5074813E-1,1.5425263E-1,-5.2139238E-3,-1.6208442E-1,1.684548E0,-3.0269247E-1,4.3956396E-1,-5.425266E-1,2.3349596E-2],"categories":[],"categories_nodes":[],"categories_segments":[],"categories_sizes":[],"default_left":[0,0,0,0,0,0,0,0,0,0,0,0,0,0,0,0,0,0,0,0,0,0,0,0,0,0,0,0,0,0,0,0,0,0,0,0,0,0,0,0,0,0,0,0,0,0,0,0,0,0,0,0,0,0,0,0,0,0,0],"id":26,"left_children":[1,3,5,7,9,11,13,15,17,19,21,23,25,27,29,31,33,35,37,-1,39,41,43,45,47,49,51,53,55,-1,57,-1,-1,-1,-1,-1,-1,-1,-1,-1,-1,-1,-1,-1,-1,-1,-1,-1,-1,-1,-1,-1,-1,-1,-1,-1,-1,-1,-1],"loss_changes":[5.536515E4,1.1128922E4,2.8076484E3,8.93709E2,4.286958E3,2.169961E3,2.687373E3,2.8341736E2,5.676387E2,2.3949468E3,1.4475071E3,3.6798096E1,1.9440195E3,4.653623E3,3.7615466E2,1.9980768E2,9.990736E2,8.63875E2,1.8598389E2,0E0,1.2819089E3,2.2264804E2,3.1604883E2,1.2546761E1,3.7176636E1,1.2817637E3,5.8876355E2,1.4315625E3,4.783588E3,0E0,1.2455115E2,0E0,0E0,0E0,0E0,0E0,0E0,0E0,0E0,0E0,0E0,0E0,0E0,0E0,0E0,0E0,0E0,0E0,0E0,0E0,0E0,0E0,0E0,0E0,0E0,0E0,0E0,0E0,0E0],"parents":[2147483647,0,0,1,1,2,2,3,3,4,4,5,5,6,6,7,7,8,8,9,9,10,10,11,11,12,12,13,13,14,14,15,15,16,16,17,17,18,18,20,20,21,21,22,22,23,23,24,24,25,25,26,26,27,27,28,28,30,30],"right_children":[2,4,6,8,10,12,14,16,18,20,22,24,26,28,30,32,34,36,38,-1,40,42,44,46,48,50,52,54,56,-1,58,-1,-1,-1,-1,-1,-1,-1,-1,-1,-1,-1,-1,-1,-1,-1,-1,-1,-1,-1,-1,-1,-1,-1,-1,-1,-1,-1,-1],"split_conditions":[2.32558E1,2.5E0,4.28571E1,4.9E1,-8.2697E1,1.40334E0,-9.5E1,3.94836E-1,3.17362E0,-3.91796E0,5.13158E1,-5.02748E-1,-8.63125E1,5E0,-9.37586E1,1.9046E0,2.06186E1,2.37224E0,-8.30833E1,1.2912664E0,1.86916E1,-8.09706E1,1.65049E1,-9.48E1,5E0,2.38797E0,6.86207E1,4.7561E1,1.9046E0,1.9303364E-1,-9.03E1,-1.748275E-1,1.2716174E-1,8.4629196E-1,-9.6666686E-2,-1.5321042E-1,-7.0017986E-2,-2.4597616E-1,-1.7411216E-1,1.4916363E-1,3.234121E-2,9.223189E-2,-6.712074E-4,-8.4947914E-2,-1.9059668E-1,2.4820685E-2,-1.7148879E-1,-1.8911313E-1,-4.5588228E-1,1.1563425E0,2.5074813E-1,1.5425263E-1,-5.2139238E-3,-1.6208442E-1,1.684548E0,-3.0269247E-1,4.3956396E-1,-5.425266E-1,2.3349596E-2],"split_indices":[8,8,8,10,0,3,1,7,12,7,10,7,0,4,0,3,14,3,0,0,14,0,8,0,4,12,10,8,3,0,0,0,0,0,0,0,0,0,0,0,0,0,0,0,0,0,0,0,0,0,0,0,0,0,0,0,0,0,0],"split_type":[0,0,0,0,0,0,0,0,0,0,0,0,0,0,0,0,0,0,0,0,0,0,0,0,0,0,0,0,0,0,0,0,0,0,0,0,0,0,0,0,0,0,0,0,0,0,0,0,0,0,0,0,0,0,0,0,0,0,0],"sum_hessian":[6.865E3,5.142E3,1.723E3,2.769E3,2.373E3,1.422E3,3.01E2,3.1E1,2.738E3,1.165E3,1.208E3,1.5E1,1.407E3,2.9E2,1.1E1,2.1E1,1E1,2.337E3,4.01E2,3E0,1.162E3,2.63E2,9.45E2,2E0,1.3E1,1.142E3,2.65E2,9E0,2.81E2,2E0,9E0,8E0,1.3E1,4E0,6E0,1.963E3,3.74E2,1.68E2,2.33E2,3.26E2,8.36E2,1.11E2,1.52E2,8.68E2,7.7E1,1E0,1E0,4E0,9E0,3E0,1.139E3,1.8E2,8.5E1,1E0,8E0,2.3E1,2.58E2,8E0,1E0],"tree_param":{"num_deleted":"0","num_feature":"15","num_nodes":"59","size_leaf_vector":"1"}},{"base_weights":[6.9586937E-3,-1.5871094E0,4.5324497E0,-2.5658638E0,2.691113E-1,5.125714E0,1.6621956E0,-3.1941342E0,-2.0283568E0,2.3864224E0,-4.4271228E-1,4.0106745E0,6.4275155E0,-2.2203246E-1,3.0713212E0,-1.4139786E0,-3.332088E0,-3.0393727E0,-1.3971442E0,1.8323648E1,2.1641781E0,1.2303776E0,-1.0644784E0,4.5656796E0,-9.655976E-1,3.0300472E0,7.4162116E0,1.22472E0,-2.322363E0,3.6827078E0,1.1256735E0,-1.1415992E-1,5.1399666E-1,-1.6936617E-1,-1.24447726E-1,-1.6790718E-1,2.4917184E-1,1.0625296E-2,-1.1214425E-1,1.0945886E0,1.207571E-2,-2.899279E-1,1.2781143E-1,3.7111542E-1,5.611297E-2,-1.5156275E-1,-2.995108E-2,2.1980707E-1,8.810714E-1,-4.5637202E-1,9.07236E-2,2.3038049E-1,1.4027873E-1,4.748424E-1,3.261089E-1,3.5042992E-1,-2.8375614E-2,-2.0490336E-1,1.5853167E-1,1.6800967E-1,5.698022E-1,1.1721382E-1,-2.3255368E-1],"categories":[],"categories_nodes":[],"categories_segments":[],"categories_sizes":[],"default_left":[0,0,0,0,0,0,0,0,0,0,0,0,0,0,0,0,0,0,0,0,0,0,0,0,0,0,0,0,0,0,0,0,0,0,0,0,0,0,0,0,0,0,0,0,0,0,0,0,0,0,0,0,0,0,0,0,0,0,0,0,0,0,0],"id":27,"left_children":[1,3,5,7,9,11,13,15,17,19,21,23,25,27,29,31,33,35,37,39,41,43,45,47,49,51,53,55,57,59,61,-1,-1,-1,-1,-1,-1,-1,-1,-1,-1,-1,-1,-1,-1,-1,-1,-1,-1,-1,-1,-1,-1,-1,-1,-1,-1,-1,-1,-1,-1,-1,-1],"loss_changes":[5.0043086E4,9.320793E3,3.0684766E3,1.1278555E3,2.67173E3,2.147207E3,8.264224E2,3.7519922E2,1.152748E3,1.5400581E3,1.3817488E3,2.238751E3,2.2919238E3,4.1002444E2,2.0759302E2,1.1720687E3,5.8398438E1,1.7967124E3,1.5224619E3,3.8182874E2,1.3915342E3,2.3267596E2,8.843395E2,1.5339219E3,1.8771818E3,4.2669678E1,9.295254E2,8.332618E2,5.494601E2,2.9754138E2,3.2064404E2,0E0,0E0,0E0,0E0,0E0,0E0,0E0,0E0,0E0,0E0,0E0,0E0,0E0,0E0,0E0,0E0,0E0,0E0,0E0,0E0,0E0,0E0,0E0,0E0,0E0,0E0,0E0,0E0,0E0,0E0,0E0,0E0],"parents":[2147483647,0,0,1,1,2,2,3,3,4,4,5,5,6,6,7,7,8,8,9,9,10,10,11,11,12,12,13,13,14,14,15,15,16,16,17,17,18,18,19,19,20,20,21,21,22,22,23,23,24,24,25,25,26,26,27,27,28,28,29,29,30,30],"right_children":[2,4,6,8,10,12,14,16,18,20,22,24,26,28,30,32,34,36,38,40,42,44,46,48,50,52,54,56,58,60,62,-1,-1,-1,-1,-1,-1,-1,-1,-1,-1,-1,-1,-1,-1,-1,-1,-1,-1,-1,-1,-1,-1,-1,-1,-1,-1,-1,-1,-1,-1,-1,-1],"split_conditions":[2.25E1,5.26316E0,-8.63125E1,6.31535E0,-8.625E1,2.38095E1,3.37907E0,-9.2675E1,-8E1,-3.12775E0,2.86522E1,2E1,1.94979E1,1.72414E1,-8.30833E1,7.15782E-1,-6.6E1,2.7027E0,5.39167E1,-8.92286E1,-9.1E1,1.67227E1,1.77618E1,1.9802E1,-9.3875E1,-8.4E1,2.53205E1,6.86207E1,1.9802E1,1.87991E0,2.58158E1,-1.1415992E-1,5.1399666E-1,-1.6936617E-1,-1.24447726E-1,-1.6790718E-1,2.4917184E-1,1.0625296E-2,-1.1214425E-1,1.0945886E0,1.207571E-2,-2.899279E-1,1.2781143E-1,3.7111542E-1,5.611297E-2,-1.5156275E-1,-2.995108E-2,2.1980707E-1,8.810714E-1,-4.5637202E-1,9.07236E-2,2.3038049E-1,1.4027873E-1,4.748424E-1,3.261089E-1,3.5042992E-1,-2.8375614E-2,-2.0490336E-1,1.5853167E-1,1.6800967E-1,5.698022E-1,1.1721382E-1,-2.3255368E-1],"split_indices":[8,8,0,11,0,14,12,0,2,7,10,14,11,14,0,7,2,8,10,0,2,10,11,14,0,2,10,10,14,7,10,0,0,0,0,0,0,0,0,0,0,0,0,0,0,0,0,0,0,0,0,0,0,0,0,0,0,0,0,0,0,0,0],"split_type":[0,0,0,0,0,0,0,0,0,0,0,0,0,0,0,0,0,0,0,0,0,0,0,0,0,0,0,0,0,0,0,0,0,0,0,0,0,0,0,0,0,0,0,0,0,0,0,0,0,0,0,0,0,0,0,0,0,0,0,0,0,0,0],"sum_hessian":[6.935E3,5.129E3,1.806E3,3.358E3,1.771E3,1.496E3,3.1E2,1.546E3,1.812E3,4.45E2,1.326E3,8.08E2,6.88E2,1.33E2,1.77E2,1.12E2,1.434E3,6.95E2,1.117E3,5E0,4.4E2,3.59E2,9.67E2,7.27E2,8.1E1,1.56E2,5.32E2,7.9E1,5.4E1,1.34E2,4.3E1,1.05E2,7E0,1.343E3,9.1E1,6.69E2,2.6E1,3.85E2,7.32E2,4E0,1E0,2E1,4.2E2,5E0,3.54E2,1.84E2,7.83E2,7.19E2,8E0,2E1,6.1E1,1.7E1,1.39E2,1.57E2,3.75E2,1.8E1,6.1E1,4.1E1,1.3E1,1.3E2,4E0,3.6E1,7E0],"tree_param":{"num_deleted":"0","num_feature":"15","num_nodes":"63","size_leaf_vector":"1"}},{"base_weights":[-4.331733E-2,-1.4306698E0,4.50733E0,-2.3840625E0,2.0453006E-1,4.752327E0,-1.154654E0,-3.0498514E0,-1.9419047E0,1.2382998E0,-8.124507E-1,2.3362482E0,5.2728653E0,1.8601336E1,-4.946956E0,-1.4065198E0,-3.1662796E0,-1.7117398E0,-3.6701798E0,1.0510554E0,1.1540551E0,-1.4375951E0,1.1028345E0,1.1194712E0,2.1802094E0,3.9016168E0,7.1490307E0,1.4965559E0,-9.8062783E-1,-2.2107325E0,-1.3193162E1,6.600622E-1,-8.612656E-2,3.0961642E-1,-1.593282E-1,-1.04513936E-1,-2.5792023E-2,-1.4093538E-1,-3.0667636E-1,5.151548E-1,4.9846597E-2,-5.849844E-2,-1.9043611E-1,4.3473553E-2,2.2726607E-1,-3.8429663E-1,1.3127358E-1,2.1517102E-1,-9.443151E-2,3.0848607E-1,4.3001792E-1,2.4716794E-1,-6.169144E-1,4.2579394E-2,-5.7375556E-1,-2.1230152E-1,-7.1652573E-1],"categories":[],"categories_nodes":[],"categories_segments":[],"categories_sizes":[],"default_left":[0,0,0,0,0,0,0,0,0,0,0,0,0,0,0,0,0,0,0,0,0,0,0,0,0,0,0,0,0,0,0,0,0,0,0,0,0,0,0,0,0,0,0,0,0,0,0,0,0,0,0,0,0,0,0,0,0],"id":28,"left_children":[1,3,5,7,9,11,13,15,17,19,21,23,25,27,29,31,33,35,37,-1,39,41,43,-1,45,47,49,-1,51,53,55,-1,-1,-1,-1,-1,-1,-1,-1,-1,-1,-1,-1,-1,-1,-1,-1,-1,-1,-1,-1,-1,-1,-1,-1,-1,-1],"loss_changes":[4.3126637E4,8.161787E3,2.2194082E3,9.6760547E2,2.0290101E3,1.9119102E3,5.1117056E3,2.4771973E2,7.853169E2,1.5706754E3,1.1665873E3,8.0542444E2,3.2085469E3,2.4698044E3,1.256951E3,4.335831E2,2.5323047E2,7.947583E2,4.7142236E2,0E0,1.3611287E3,4.6132288E2,1.8885214E2,0E0,1.2150812E3,1.7041777E3,7.0022656E2,0E0,3.974057E2,1.2580737E3,8.161694E1,0E0,0E0,0E0,0E0,0E0,0E0,0E0,0E0,0E0,0E0,0E0,0E0,0E0,0E0,0E0,0E0,0E0,0E0,0E0,0E0,0E0,0E0,0E0,0E0,0E0,0E0],"parents":[2147483647,0,0,1,1,2,2,3,3,4,4,5,5,6,6,7,7,8,8,9,9,10,10,11,11,12,12,13,13,14,14,15,15,16,16,17,17,18,18,20,20,21,21,22,22,24,24,25,25,26,26,28,28,29,29,30,30],"right_children":[2,4,6,8,10,12,14,16,18,20,22,24,26,28,30,32,34,36,38,-1,40,42,44,-1,46,48,50,-1,52,54,56,-1,-1,-1,-1,-1,-1,-1,-1,-1,-1,-1,-1,-1,-1,-1,-1,-1,-1,-1,-1,-1,-1,-1,-1,-1,-1],"split_conditions":[2.4183E1,5.26316E0,6.5037E1,5.75107E0,-8.3E1,1.85893E1,1.456E3,4.368E3,2.23101E1,-4.90148E0,4.704E3,-9.8E1,2.04082E1,-9.3E1,2.912E3,-9.5E1,-9.8E1,1.21783E1,1.86916E1,1.0510554E0,-9.6E1,-7.2E1,1.1312E4,1.1194712E0,2.04082E1,-7.8E1,7.952E3,1.4965559E0,2E0,5.03268E1,1.23586E0,6.600622E-1,-8.612656E-2,